-0.0000013569,-0.0013257140,0.0238736896,0.4458858367,0.0002032777,0.0000120681,0.0000098933,-0.0000020400,-0.0017531426,-0.0000024815,-0.2093045625,0.0004279983,-0.0001657586,-0.0002210532,0.0000000543,-0.0000222399,0.0000001668,0.0004290892,-0.0000001581,-0.0023288709,0.0000045783,-0.0000025937,-0.0028186983,0.0218036854,0.0065603386,-0.0000121950,-0.0002340059,0.0000000694,0.0000016787,0.0059922051,-0.0000744632,0.1038821074,-0.0000354534,-0.0000828337,-0.0000431241,-0.0001042784,0.0000023512,0.0987746821,-0.0514678520,-0.0003064104,-0.0001168024,-0.0001777627,0.0000129199,-0.0000763587,0.0000000686,-0.0000039121,-0.0000000731,-0.0000020021,-0.0003210398,0.0026994887,0.0000596733,-0.0000011164,-0.0554020725,-0.0027015816,0.0004011412,-0.0000328018,-0.0000211446,0.0001668992,0.0000115918,-0.0007864785,-0.0001405110,0.0000013569,0.0050735310,-0.0000009821,-0.0000476943,-0.0004232480,-0.0000036371,-0.0000001973,0.0000018226,0.0006934878,-0.0000059603,0.0919929410,0.0040365063,-0.0000067402,-0.0000037194,0.1092523640,0.0000012230,-0.0001142294,-0.0000201529,0.0000026163,0.0000011982,-0.0000001025,0.0000000371,-0.0000000165,0.0130424805,-0.0000593459,0.0000000669,0.0168508372,-0.0002412845,0.0028815639,-0.0000664360,0.0000020083,-0.0000513831,-0.0000009112,-0.0000022668,-0.0000409499,0.0000146378,-0.0000844129,0.0000053477,0.0178933389,0.0000019159,0.0000009204,-0.0002309851,-0.0205878356,-0.0000482018,-0.0000051384,-0.0001280865,0.1352252094,0.0008076286,-0.0000358115,-0.0000086970,0.0000089241,0.0032261891,-0.0001553372,-0.0003625620,0.0000225827,0.0000123084,-0.0000679521,-0.0000012197,0.0000127694,-0.0000379886,0.0030283206,-0.0000012033,0.0155842163,0.5187237714,0.0061684511,-0.0000020737,-0.0000008859,-0.0001349089,-0.0000814433,0.0000128332,-0.0000078766,-0.0001644620,-0.0127758271,0.0009973342,0.0000060127,-0.0001235347,0.0005526936,0.2047859892,0.0306064097,0.0002255809,-0.0000018218,0.0062899016,0.0000048330,-0.0618735212,0.0000126509,-0.0000347272,-0.0000001441,-0.0000092500,-0.0001758228,0.0002577334,0.0465965396,-0.0019419985,-0.0004504974,0.0000000601,0.0092787982,0.0000105424,0.0013599698,-0.0000843348,-0.2276893395,-0.0000005368,-0.0000039597,0.0786588189,-0.0000050868,-0.0000020651,0.0000132288,-0.0001254010,0.0000021290,-0.0931433457,-0.0000898324,0.0000012192,-0.3380868794,-0.0000068581,-0.0001077323,-0.0000011942,-0.0000552249,0.0000068148,-0.0012365436,-0.0001701056,-0.0002967633,-0.0000070405,-0.0000372867,-0.0023570786,-0.0002091855,0.0000018239,-0.0000757880,-0.0082793594,-0.0001502412,0.0000005377,0.0199095950,-0.0000380452,-0.0006419196,0.0010493551,-0.0000030785,-0.0352596059,0.0000004305,-0.0000289552,0.0000009167,-0.2323889108,-0.0000227810,-0.0000041786,-0.0000790629,0.0000040929,-0.0000173624,-0.0000098398,0.0031085014,-0.0000583133,0.0004194615,0.0000019948,-0.0000917759,-0.0003291771,-0.0000000625,0.0000474903,-0.0000012187,-0.0000949385,0.0000003682,-0.0000000604,0.0000010525,0.0000074940,0.0005553776,-0.0000031020,-0.0000752287,-0.0065424250,0.0001272269,0.0103466105,-0.0000573548,-0.2943622419,-0.0001445904,0.0000126761,0.0000017088,-0.0000142873,-0.0013760424,-0.0000062675,-0.0000414296,0.0000010578,0.0000058180,0.0000000773,-0.0005829025,-0.0223512038,-0.0000987668,0.0000007931,-0.0235547676,-0.0001164419,0.0000009659,-0.0000606745,-0.0395831260,0.0000000785,-0.0001429517,-0.0000940994,-0.0000254085,-0.0000005085,0.0067125822,-0.0004036163,-0.0061484986,-0.0028908525,-0.0008277975,-0.0000163818,0.0000000406,0.0000109565,0.0000000807,0.0029559819,-0.0000534971,0.0000101772,-0.0001576802,0.0000002041,-0.0000032551,-0.0000021528,-0.0000005656,-0.0000958968,0.0000000616,-0.0000156294,0.0000000232,0.0028710273,-0.0005977137,-0.0001812035,-0.0759730618,0.5438157060,-0.0013768435,-0.0006558561,-0.0028126695,0.1862848737,0.1911127078,-0.0000034093,0.0000133544,0.0182483413,0.0135268874,0.2650700642,-0.0001017311,-0.0000658058,0.0000007086,0.0000907453,-0.0067953210,-0.0001257240,-0.0000005250,0.0011522227,-0.0389476664,-0.0868692476,-0.0000023401,0.0000046919,0.0024781795,-0.0001483282,0.0000021351,-0.0000553928,-0.0000022572,-0.1041472099,-0.0000005394,0.0000005324,-0.0299903196,-0.0031814788,0.0000821527,-0.0000306470,-0.0317745214,-0.0031505859,0.1206641942,-0.0001533956,-0.0001174988,0.0000099718,0.0000015878,0.0003670278,0.0000141195,0.0000020171,0.0000329617,0.0000003241,0.0667434237,0.0052425382,0.0011432915,0.0000033041,-0.0000005483,-0.0000643089,-0.0003389008,0.0000029191,0.0000039049,-0.0001532594,0.0000000913,0.0000000418,-0.0000001757,0.0001472377,-0.0013711402,-0.0000856533,-0.0000015155,0.0000057618,-0.0000034735,0.0535256030,0.0000000943,-0.0001297738,0.0000003280,0.0330033051,-0.0000064051,0.0001923812,0.0000128786,-0.0000979746,-0.0000372335,0.0002109481,0.0000128352,-0.0000306081,0.0000060180,0.0000011903,-0.0000218143,-0.0001490346,-0.0000402809,-0.0000000968,0.0000096047,0.0000019601,0.0003453901,0.0065580623,-0.0000635814,0.0000000748,-0.0002430231,0.0000012111,-0.0000466922,0.0237234819,-0.0018124026,0.0159802498,-0.0000042308,0.0000023288,-0.0003343593,0.0000129751,-0.0000012101,-0.0000001141,0.0003874443,-0.0000011078,-0.0000934199,-0.0546601861,-0.0000521172,0.0000019680,0.0285681724,0.0038714669,0.0000000772,-0.0000492081,0.0067031731,-0.0000613502,0.0000130595,0.0000007799,0.0000089444,0.0000015747,0.0000000674,0.0093340781,0.0016360646,-0.2482344391,0.0123465806,-0.0000035249,-0.0000017916,-0.0399753701,0.0703334989,0.0227869071,-0.0017596084,-0.0000276706,0.3913637826,0.0000115421,-0.0000006502,-0.0000419557,-0.0000756190,0.0015656494,-0.0091667322,-0.0001131405,-0.0000009235,0.0001893829,-0.0000844131,-0.0000040929,-0.0000613416,-0.0000037687,-0.0015489220,-0.0330515817,-0.0027304453,-0.0000020341,-0.0000020338,0.0000005367,0.0000012091,0.0000022326,0.0016737097,-0.0005838717,-0.0000472487,0.0000000813,-0.0000000797,-0.0187957689,-0.0000001094,-0.0007283834,0.0027301799,-0.0001356656,0.0000098587,0.0000118180,0.0000130017,-0.0001839760,-0.0000017048,-0.0000040722,-0.0000631470,-0.0001728175,-0.0000020132,0.0003020219,-0.0026041005,-0.0002195238,0.1074447021,-0.0028825777,-0.0009016257,0.0000019300,0.0000082619,0.0000000364,-0.2285653916,0.0000009756,-0.0006738814,-0.0000029482,-0.0012335940,-0.0001550278,0.0000004981,-0.0000093859,0.0000018337,0.0000011098,0.0240424488,-0.0000580773,-0.0038916898,-0.0003278611,-0.0000021563,0.0000019827,0.0011715942,-0.0036616278,-0.0000001898,-0.0001114263,-0.0000464849,-0.0000166197,0.0011193755,0.0000042240,-0.0664973171,-0.0000002078,0.0252359418,-0.0000044233,0.0000024555,-0.0008085558,-0.0001413571,-0.0008309673,-0.0000008162,-0.0000013486,0.0000019256,-0.0000015407,-0.0000069101,0.0895115432,0.0000012008,-0.0000744330,-0.0000352840,-0.0001346679,0.0000000733,0.0060690726,-0.0003399659,0.1212525526,-0.0000637317,0.0069195763,0.0146139572,-0.0000093744,-0.0266101290,-0.0000818774,0.0000061444,0.0000040262,-0.0000012117,-0.0000044503,-0.0167680007,-0.0000000751,-0.0000000783,-0.0000617759,0.0000005191,0.0000131546,0.0000064417,0.0182515352,0.0016968222,0.0000122724,0.0000021198,0.0000001248,0.1516330988,0.0000122551,0.0001369990,-0.0000589141,0.0000062312,-0.0000034098,0.0064389920,-0.0000009175,-0.0124960484,-0.0000616612,-0.0000936471,-0.0004810851,-0.0000622016,-0.0000453205,-0.0651444427,-0.0373473455,0.0000004292,-0.3871983304,-0.0004103362,-0.0012475844,0.0000005169,0.4854669480,0.0000031527,-0.0000766689,-0.0000190870,0.2858762958,0.0000019754,-0.0000673371,-0.0000004645,0.0050711815,-0.0000070613,0.0045953900,-0.0000018445,-0.0001235883,-0.0000028829,-0.0001619502,-0.0000415803,0.0000010883,0.1045245941,0.0462615165,-0.0000000700,0.0000000542,-0.0000707874,-0.0004448115,0.0016567135,0.0000487546,-0.0011866698,-0.0000000811,-0.0000013046,0.0000016979,0.0048268865,0.0000005046,-0.0792751280,-0.0078796181,-0.0000714613,0.0000016830,0.0000077911,0.0000061215,-0.0000002358,0.0000031262,0.0000004067,0.2687599456,0.0004025342,-0.0000051539,-0.0000001695,-0.0000664434,0.0000105025,0.0005416475,0.0003439775,-0.0000655077,0.0017846017,-0.0018371304,-0.0000013985,-0.0000801022,-0.0001201052,-0.0000010819,-0.1045739787,-0.0001903096,0.0000001413,0.0000019898,0.0120464492,0.0000132253,0.0061837250,-0.0000468609,-0.0675975830,-0.3021864706,0.0000128261,0.0000015082,0.0112085969,-0.0034387543,0.0000031443,-0.0000003069,-0.0000665533,0.0210687712,-0.0000267530,-0.0004505990,-0.0000217722,0.0000112329,-0.0000876932,-0.0005505908,-0.0000590699,-0.0000590592,-0.0000459249,-0.0008736422,-0.0001016016,0.0000060892,0.0158773185,-0.0080818207,0.0000000781,-0.0016963588,-0.0001655245,-0.0001820912,0.0000014106,-0.0008868757,-0.0000126480,-0.0000044723,0.0000043333,0.0000046086,-0.0000010649,0.1970326163,-0.0002628883,-0.0011461083,0.0000655727,0.1245848194,-0.0002781752,-0.0076321551,-0.0000458525,-0.0056230189,-0.0003948529,-0.0001272245,0.0000098167,-0.0000128050,-0.0001034720,0.0000000754,0.0000012078,-0.0000010841,-0.0000775651,0.0000005336,-0.0000325463,0.0000074498,-0.0000001711,-0.3529540896,-0.0001310647,0.0000012189,-0.0001190999,-0.0124443547,-0.0000187808,0.0000069383,0.0000001048,0.0000303407,-0.0000050550,0.0000039091,0.0000010390,-0.0001119993,-0.0001691171,-0.0000001091,0.0029643501,-0.0000000688,-0.0000926337,-0.0012526339,-0.0000977847,-0.0000550863,-0.0000009120,0.0000053355,-0.0000051648,-0.0000000324,0.0007169735,-0.0000000817,0.0000021328,0.0000054885,0.0012363416,-0.0000626157,-0.0000945309,-0.0000000323,0.0000102984,-0.0000264328,-0.0000000613,0.0026544210,-0.0001785366,0.0005064724,-0.0009054010,-0.0000015706,-0.0415840407,-0.0000011992,-0.0001005086,-0.0006132752,0.0003901030,0.0861704528,0.0159387311,-0.0000005171,-0.0027053979,0.0000103278,-0.0001818906,0.0022174808,0.0000047293,-0.1751479726,-0.0000012182,-0.0398893549,0.0197375519,-0.0019167270,0.0363252316,-0.0001175197,-0.0085863058,-0.0000001434,0.0007409121,-0.0000307222,-0.0012978579,0.0009587121,-0.0000112562,-0.0000955534,0.0000000668,0.0055470379,-0.1856873966,0.0000009005,-0.0000747615,-0.0000004168,0.0025617982,-0.0000265055,-0.0000028846,-0.0000783454,-0.0005447390,0.0000130023,-0.0001691250,-0.0044619109,-0.0000108832,-0.0008946878,-0.0000032489,-0.0000009866,-0.0000000608,-0.0000966374,-0.0000550061,0.0001924555,-0.0008033438,-0.3291067335,0.0000141997,0.0009346284,0.0000020083,-0.0000000658,0.0001948163,0.0000027288,0.0000000772,-0.0000549132,0.0000143754,0.0000072059,-0.0972777341,-0.0000039609,-0.0001542712,0.0000022440,0.0000051578,0.0003093372,-0.0040631533,-0.1335659713,0.0000001385,0.0000020936,0.0000106288,-0.0000020150,-0.0000911003,0.0007722463,-0.0000033880
-0.0191806612,-0.0056720775,0.0512303459,-0.0464747557,0.0497190775,-0.0199914910,-0.0037729742,-0.0597233122,-0.1258201493,0.1714845238
