-0.0056805164,-1.2037493825,-0.4715468158,-0.5064699823,-0.0460269448,0.0162211789,0.0113035369,-0.0055680928,-4.1184973182,0.0153783826,0.0623493863,-0.1831018365,-0.1568220221,-0.1972393395,0.0011847862,0.0106250046,-0.0060662380,-0.0500581724,0.0152595135,-2.2785646759,0.0000157229,0.0024623672,0.1834183605,-0.5342697733,-1.5072559557,0.0166056032,-0.2222092394,-0.0063224432,-0.0007496424,0.0109647956,-0.0299357646,-0.8928397891,0.0050982222,-0.0495116146,0.0000994762,-0.0626971159,0.0152266097,-0.0889833786,0.6026355497,-0.2675044481,-0.0789146446,-0.1339885507,-0.0004467230,-0.0490434343,0.0014788007,-0.0038865695,-0.0007454866,0.0026746323,0.1551054172,-0.2654938469,-0.0503926300,-0.0033584750,-4.4469486640,-1.7882010193,-0.0891338496,0.0083256692,0.0107976162,-0.0014266705,0.0089479638,-0.7494278168,-0.1063960755,-0.0004239437,-0.3552566343,-0.0000704094,-0.0040695456,-0.4195580060,0.0148053787,0.0023868571,-0.0037506948,0.5327473406,-0.0017221644,-0.1752020891,1.5126790239,0.0144901476,0.0147905750,0.0477940727,-0.0016673322,-0.0749620000,-0.0590978991,0.0004146443,-0.0016068039,-0.0011101870,0.0012548249,0.0007247487,-0.0237735415,-0.0151518771,0.0014719278,-0.7883741460,-0.4299526029,0.0088999942,-0.0224985120,-0.0026933143,-0.0072623393,-0.0016143238,-0.0000878917,0.0019036626,0.0144593466,-0.0415558201,0.0135759553,-0.0294222383,-0.0027021271,0.0018979876,-0.1946061041,-1.1449956243,-0.0082756463,-0.0029762615,-0.0945736048,-0.1465118182,-0.0673931510,0.0045780845,0.0144209234,0.0114239165,-0.5033354522,-0.1335184682,-0.3104740133,0.0708875130,0.0069473446,-0.0246620505,0.0015989619,0.0035898008,0.0027135033,-0.1119761513,0.0010192452,-0.0001930309,-1.7782707634,-0.3333321767,-0.0010694675,-0.0023774663,-0.0591803547,-0.0378510654,-0.0006991384,0.0136135136,-0.1777450341,-12.7202705675,0.0497460703,-0.0051501631,-0.1002479761,-0.0280109973,-1.4248595802,0.2303237766,-0.0278535149,0.0010074294,-0.5899615583,0.0003585367,-1.6338628069,0.0057169075,0.0095964431,-0.0007174230,0.0141571235,-0.1198469175,0.1435284262,0.1644725919,-1.9418826002,-0.2960841262,-0.0063803542,-0.0322197668,-0.0025458473,-0.1035170666,-0.0399538806,-1.6563828714,0.0040043513,-0.0039780964,-8.8635425207,0.0031714049,0.0102209826,0.0050239438,-0.0914163967,-0.0060422830,-0.1612324806,-0.0643484722,-0.0016335948,-0.0002959554,-0.0000285659,-0.0558740125,0.0015448669,-0.0118055054,-0.0072520183,-0.1052404624,-0.1733228055,-0.2868822766,0.0001444973,0.0036092263,-2.3193723726,-0.2083113484,-0.0037555501,-0.0316202524,0.3091632652,-0.1197202171,-0.0018873045,-0.1536851912,0.0028125021,-0.5069540846,-0.1340141493,-0.0057131145,0.2746545527,-0.0022983555,0.0080391181,0.0027206632,-0.3665440911,0.0092200720,0.0015932182,-0.0356221555,-0.0050459908,0.0117756562,0.0145140477,-0.0910838029,-0.0137056087,-0.1191957100,-0.0025882246,-0.0483269770,-0.4553572995,-0.0011639410,0.0326232692,0.0016548379,-0.0529194212,0.0005647352,-0.0009724945,-0.0009452147,0.0127178194,0.1290231508,-0.0056056634,-0.0452325564,-6.2316262883,-0.0581915093,0.0336644891,-0.0122218535,1.0537123537,-0.1133505485,0.0035272300,0.0147690851,0.0183257858,-1.3474641404,-0.0000642951,0.0051030360,0.0015300216,0.0135555771,0.0015024259,-0.5900714876,0.1828517460,-0.0589106131,0.0012450581,0.7371197973,-0.1196184555,0.0017512491,-0.0162686951,-0.0899006622,0.0013473389,-0.1163068397,-0.0515017640,0.0091377365,0.0025492063,-0.6014840918,-0.4079403608,-11.2529422490,-2.8850243814,-0.2849143323,0.0125733537,0.0046135623,0.0090576792,0.0014442203,-0.1223704871,-0.0100739291,0.0170597551,-0.1302262396,0.0007467009,0.0022371464,0.0001184344,-0.0003312864,-0.0532768441,0.0011089420,0.0006529375,-0.0001613029,-0.0540091117,0.0507960521,-0.1749849801,0.0680949424,-7.9940896066,-1.3618400325,-0.6419155035,-2.7573526437,-3.5032076560,-2.0230255569,0.0138661789,0.0122294337,-2.4609964990,0.1216258348,-2.7856109431,-0.1375657273,-0.0211146023,0.0018495525,-0.6357802508,-0.1777542499,-0.1019277898,0.0040506049,-0.5377245418,-0.9413886484,0.0233532138,0.0062568438,-0.0040524643,-0.0288081104,-0.1190952219,-0.0060271708,-0.0170434861,-0.0022335164,-1.2636647149,0.0040347604,-0.0023922006,0.2483264016,-3.3029479448,-0.1649816466,0.0133437224,-1.8685786241,-1.8037014669,-0.0783726513,-0.1236597041,-0.1072443749,0.0117829555,0.0018718641,-0.2095103646,-0.0868313387,-0.0027346778,-0.0778322759,-0.0057618424,0.1572178217,-0.8740425439,-2.3011942862,0.0144321948,0.0016930285,-0.0197642015,0.0226687493,-0.0010633130,0.0142526855,-0.1044898311,0.0014661751,0.0013028543,0.0006424094,-0.1591115140,2.4128875484,-0.0417531500,0.0011705581,-0.0057349306,0.0023363547,-2.1344024840,0.0013344020,-0.1503133708,-0.0032435971,-0.4499086561,-0.0032779123,-0.1499123607,0.0016130552,-0.0574136809,0.0032107535,0.0215215937,0.0040084621,-0.0888445385,-0.0045147523,-0.0014576020,0.0218153131,-0.0935015531,-0.0003616412,-0.0014364528,0.0070317629,-0.0056255455,-0.0611933935,-0.5717207749,-0.0192308226,0.0014233084,-0.2212841871,-0.0016509361,-0.0080314696,0.2703142712,-1.8020148066,-2.8582521471,-0.0042958265,0.0149467435,-0.3145251006,-0.0289262354,0.0016812591,-0.0067493122,-0.0627811101,0.0012301529,-0.0496824758,-2.1013527090,-0.0050110178,0.0148568986,2.4756213977,-0.0552815776,0.0014870251,-0.0047037962,-0.0359148811,-0.0183554831,0.0031591623,0.0007681034,0.0115019306,0.0037708170,0.0014731170,-1.3121376023,-0.0213753767,-1.3326696519,1.5778293526,0.0149423959,0.0017942391,-0.1556803774,-0.8888638812,0.2569104241,-1.7911816093,0.0072134225,-4.7750167468,-0.0037888007,-0.0008639780,0.0004959736,-0.0322644000,-0.1481275990,-0.6375638155,-0.0996885521,-0.0021639798,-0.0443803230,-0.0293406568,0.0085070173,-0.0280759488,-0.0038600890,-0.5054599336,0.1664677540,-2.5561418441,-0.0009612236,0.0027686876,-0.0013601629,-0.0016323732,0.0014872713,-0.1127743261,-0.6255100636,-0.0042224529,0.0014471610,-0.0014697807,-1.6863766646,-0.0011956152,-0.7238156320,0.3649253325,-0.1746038818,0.0085705367,0.0074801582,0.0032993219,-0.1521794555,0.0013564965,0.0011736190,-0.0186721535,-0.1402949215,0.0011855795,0.0088871672,-0.4343655663,0.0615983976,-2.3750028285,-0.0737893854,-1.2103260864,-0.0634205328,-0.0035306168,0.0012508201,-0.2734687353,0.0025541803,0.0159683869,0.0010745912,-1.1586850686,-0.1265965565,-0.0039544866,0.0138246535,-0.0012834506,-0.0091867295,0.1127697112,-0.0140632072,0.0611687079,-0.3098171237,0.0002369954,-0.0025359752,-0.1755681156,0.6002198538,-0.0000252462,-0.0706881688,-0.0031576080,-0.1497103993,-0.0548811427,-0.0050982389,-0.9698880330,-0.0000756254,-0.0053911275,-0.0044979738,-0.0012760424,-0.7859057323,-0.0862196363,-0.9478876549,0.0005437876,0.0004830985,0.0049071912,-0.0059781188,0.0144365822,-0.5032252521,-0.0015859266,-0.0305257847,0.0052250652,-0.0984350155,0.0045322847,-0.7132683059,-0.3112684072,0.2879190446,-0.0195878645,-0.3347279397,-0.0567759726,0.0143840656,-0.1933126700,-0.0561135696,-0.0045090047,0.0143505433,0.0008039546,-0.0046960280,-0.3083150386,-0.0013964383,-0.0014842951,-0.0169419215,-0.0019169985,0.0012688185,0.0062995878,-1.8179347595,-0.5004565884,0.0086708977,-0.0002136880,-0.0017473897,-0.0586697262,0.0052357864,-0.0855690562,-0.0147603730,0.0141208882,-0.0119188785,-0.0659603495,-0.0020435983,-3.9576080249,-0.0202856724,-0.0678306997,0.0339235745,-0.0271837578,-0.0014628465,-0.1179491915,0.0916007294,-0.0030362139,0.0477198061,-0.3977094205,-1.1644766707,-0.0013517543,-1.2739413891,0.0006733794,-0.0617408520,0.0110371974,-0.4887991876,-0.0026264239,-0.0242095683,0.0212452790,-0.9943421459,0.0001123846,0.0123044044,0.0020392433,-0.0867123031,0.0004453242,-0.1469842497,0.0009489114,0.0014667497,-0.0330671946,-0.2347967021,-0.0014838311,0.0011941989,-0.0254360970,-0.6319059961,-0.1597940428,-0.0793710281,-1.1550235687,-0.0014796909,0.0069683845,-0.0018121700,-0.0222213007,-0.0060604079,-1.8169758735,-0.1153433598,-0.0274904504,-0.0007383466,0.0129364088,-0.0047400713,0.0013241605,0.0008521408,-0.0059499561,-3.1235661230,-0.0617693607,0.0032648822,0.0006563231,-0.0213637731,-0.0028451766,-0.3050918176,-0.0499229366,-0.0974347503,-0.0669238876,-1.7856630919,0.0005235097,-0.0360550778,-0.3057173269,-0.0033717028,0.1145534497,-0.1760446215,-0.0015231665,-0.0026857386,-0.0158349918,0.0033354175,0.1467273890,-0.0028677704,1.0544154040,-0.0994415772,0.0056998710,-0.0782233488,-0.7975277731,-1.5007345757,0.0006785640,-0.0007091518,-0.0219184163,0.0552837506,0.0089981187,-0.4243849575,0.0110055833,0.0090613728,-0.0485889940,-0.8331740125,-0.0140017916,-0.0146733745,-0.0019820159,0.1203478151,-0.0789185117,-0.0053984043,-0.0422693480,-7.9798203080,0.0014772779,-1.4543202289,-0.1412877263,-0.1664914856,0.0146631424,-0.3329725700,0.0140397878,-0.0045788691,0.0145243412,0.0002563446,-0.0010265243,-7.9816404296,-0.2566041005,-1.1784034290,-0.1668210155,0.0036608557,0.0228803603,-0.2567993465,0.0059423430,-9.1541736470,-0.2563794600,-0.1048344654,0.0114215614,0.0135509581,-0.0633566597,0.0014223026,-0.0016686000,0.0006672139,-0.0984668508,-0.0040139532,0.0059782441,0.0126045008,0.0023316379,0.2377673991,-0.0946726434,-0.0016194910,-0.0803546574,-0.2704944854,0.0110741414,0.0134083548,0.0003328089,-0.0897127261,0.0030654578,-0.0008230243,-0.0004874223,-0.1755107621,-0.1448766058,-0.0012048637,-0.0505601617,-0.0014781467,-0.0489619853,-1.2076386908,-0.0565107403,-0.0103915276,-0.0019028180,0.0138942917,0.0031454917,0.0001797222,-0.0294223366,-0.0014643733,-0.0002840065,-0.0061313940,-0.0501428727,-0.0172168442,-0.1700195442,-0.0043669509,0.0107160852,0.0091688726,-0.0013503177,-0.0912118667,-0.1763457578,-0.1611170197,-1.6795741568,0.0046030610,0.3811084844,0.0012497235,-0.0579622183,-0.6004339917,-0.1735760117,-1.0857659425,-0.9639987249,0.0040347155,0.0629495873,0.0104300780,-0.1280751524,-0.1271264852,0.0175548536,-2.3500357984,0.0149305881,-1.9601793726,-0.2706257728,-2.0268569696,-0.4777936230,-0.0788949040,-10.7951883851,-0.0007248691,-0.0229209153,0.0064384775,-1.2874169738,-1.1787360810,0.0129726661,-0.0540049894,0.0014717661,-0.0739610446,-0.6990079303,-0.0002559553,-0.0306184670,0.0040100242,-1.9601051282,0.0081233290,-0.0052487094,-0.0362808474,0.1010626998,0.0052055694,-0.1493449928,-5.0076001369,0.0137177320,0.2107170178,0.0148877927,0.0009806908,-0.0014281505,-0.0535037903,-0.0102427791,0.1788822380,0.8200682670,-0.4229794714,-0.0518026123,-0.1269792004,-0.0026765570,-0.0008111534,-0.1680757272,0.0032669191,0.0014874052,-0.0107882019,0.0022932181,0.0074498988,0.0564884733,-0.0020879076,-0.1017812795,-0.0065518537,-0.0017418042,-0.1069117184,-0.0858251235,-0.4820422713,0.0041686710,0.0159877353,-0.0065667159,0.0027645083,-0.0492124650,-0.6187989484,-0.0008066814
2.2771721503,-6.0873941546,-1.5543334579,-5.8856795975,-6.6811293906,7.2159425320,-1.8191245387,1.7464880894,0.9810077728,1.6351822467
