-1.5952535206,-0.1606869918,-1.7422113016,0.4023863747,-0.2747781072,-1.4403306793,2.0656211095,-2.6972983349,-0.0862310803,1.1089446139,-0.1505216921,-0.2165080154,-1.6925473357,-0.1849588166,-0.3865081215,-2.7155275249,-1.7362012111,-0.1869468343,0.1773578493,1.8546595726,-1.6715741322,-0.0926188555,4.2317901038,-1.6321696694,1.8657838380,-0.2921851165,1.5666810638,-1.4720970257,0.2836859042,-1.3121397894,0.1625282601,-0.3093625904,-1.4071088683,2.0439632519,1.5025988871,-0.4563416810,-0.0275068263,-0.6407270721,1.4620978527,2.6258437399,0.1781683428,-0.0891339886,-0.1004894670,-1.5192510560,1.5516954159,-0.2601468752,-1.3467424011,-1.1162476763,-1.9383391593,-1.2418206495,-1.3279153600,-1.8457463426,-1.2852927788,1.1604467358,-2.2788353031,-0.1644405107,3.2138842720,-0.2702836310,0.3998333711,1.2021533863,-0.2818644285,-0.7108940625,-1.9552552894,-0.1524858548
-0.3350203654,0.7266656606,-0.5408357822,-1.5982525514,1.3678874054,-0.1563815630,-1.4916902673,0.6065847180,1.9046406228,-0.0336690002,-0.1719893094,0.6495663009,-0.2868665047,-0.1270379411,-0.1038523775,1.0332596037,-0.4171294601,-1.3801871893,-1.1621466954,0.0971690087,1.0843919665,-1.9461531406,-1.0128050668,0.1240579815,0.3009834244,-0.6493554661,0.1622286158,-1.6196002626,-0.2244967023,1.6135466163,-0.1834629492,-0.1651621920
0.7174945449,-0.8710062414,-0.4230865470
