2.1526920175,0.4237446708,2.8598828684,-5.6574361461,1.2399466534,1.8313476669,-8.7315597314,2.6393859022,0.2100119969,-4.3647599662,0.1450164881,0.2198655633,-1.6884652145,0.2496563820,0.2162984371,3.8432651500,-2.7517170264,0.4856572758,-9.6931985113,-3.2381580877,-1.2176652980,0.2952301708,-16.0147275719,-1.7948138340,0.7683452034,0.2451374882,-1.2113871876,-7.6277163897,-4.4669437128,-1.3073098649,-2.1170927105,0.2006059663,0.4461776071,-5.0626979774,-3.7835060051,0.1846754714,0.4403512678,0.1899524676,-1.1809774537,-20.9985702240,-2.1750327430,0.6141021168,0.2538992926,3.6398287035,-14.9510903152,0.2679918859,-0.1606046279,-3.7506241650,-0.2196175015,-4.3195817079,9.0359838534,3.0431022021,-5.9414055852,-9.1891017616,5.1903617799,0.3157951037,-5.0426418352,0.1704233202,-2.0621700064,0.1667679667,0.2158300573,1.0156741861,5.8207923967,1.0239605796
1.2167003696,-4.4884309820,-5.3216279225,0.0900230252,0.1534050877,0.2520640078,0.0807804161,1.8592226216,-1.3280127826,-0.5327689376,0.0163318453,-0.2244514488,0.9642784684,0.0939340076,-3.7040696489,-2.1010297434,0.1608163300,2.0662955049,1.5867829413,-0.3769414674,-0.8976064196,-1.2434617568,-6.1851180480,0.2988575901,-2.5154530443,-3.0336878015,-0.0492523361,-1.1349036533,0.5838145032,-1.7381899736,0.2982763302,0.9190794234
3.6197896892,-11.8389095382,8.2170555329
