-1.0314698772,-1.1006365601,0.1850595141,-1.1928166230,-0.6763877988,-0.7793892985,-1.2957862230,0.8145825984,-1.3067851158,-1.2881993623,0.2243790041,-0.7301493508,0.1018419431,-1.5184947384,0.5754935601,-1.0750681442,-0.0241116070,-0.9755304494,-0.6163388425,0.2753542192,-1.3615004309,-1.2615484765,-1.0694294025,-0.2145722107,-0.1052371595,-1.2463336607,-1.1345700668,-0.1052177958,0.0782425410,-0.7255617621,0.0764786033,0.6041752061,0.2446661610,-0.6030776653,0.4562682436,0.0790163010,-0.5003802035,0.1116070855,-0.1136827836,-0.8966898044,-0.3157139859,-1.2922079779,-1.3780276943,-0.3139027852,-0.2019743279,0.6145231015,0.1523616927,-1.1591221823,-0.7684379047,-0.1399302451,-0.3926444653,-0.6514567757,0.5275576998,-0.5899204825,-1.3556319421,-1.2446585656,0.1976490824,0.2900290487,-0.5831950417,-1.1653104947,-0.6323921637,-1.2262868344,0.3615970926,-0.1758807250
-1.4738342412,0.2796214930,0.7648038326,-1.3114072095,-1.3114058219,-1.2911777001,-1.2516831037,-1.0903739759,-0.5675654030,-0.1152585963,0.0004736150,0.9370149804,0.6746107154,0.8862068241,0.8817125851,-0.1515367828,-1.2322355410,0.2026171459,-1.1835670066,-1.3114081669,-1.3096226624,0.4966677623,-1.0330571255,-1.0046158516,-1.3131749849,-1.1846356667,0.0807875357,-1.3114028389,-0.6466862318,0.8354661452,-1.3114080399,0.4110487319
0.6822009714,-0.5984384976,-0.1740063511
