-0.2311740051,-0.9339344402,-0.5431526012,0.1266137474,-1.2233764180,-0.7021733177,0.5081871879,-0.5688506651,-0.5883883263,0.2343263634,-1.2214023717,-1.2423612136,-0.8706347381,-1.0289362907,-0.3522102705,-1.3425682507,-0.6282754445,-1.4052315633,0.0224037919,0.2468048940,-0.9759765791,-1.1677914398,0.4563892347,-0.8231644351,0.3589368622,-0.5616449655,0.3190296775,-0.6802904953,0.0142551167,-0.1788844195,0.0834536120,-0.4838168855,-0.6172362368,0.2588299723,0.4731532534,-0.4717620571,-1.2889603670,-0.2750724587,0.1509454054,0.3090156820,0.2562422732,-1.4516900470,-1.2359898063,-0.4329020796,0.3855965197,-0.7686618169,-0.4179201414,-0.0760982082,-0.2973693522,-0.2975204606,-0.2427702608,-0.9713387292,-0.2828798845,0.0439879701,-0.4139265443,-1.2381919752,0.1076590003,-0.1661038974,0.1900152129,0.5529187897,-0.9390183777,-0.9156758744,-0.7181075367,-1.4914193532
-1.4025439895,0.7566665986,0.6414493824,-1.3171229996,0.3500699961,-0.7642118866,-1.1731289404,0.5014623884,0.7809252968,0.0766156117,0.0677765863,-0.5074803700,-0.5227848126,-1.3245302668,-0.9276880953,0.4088751047,-0.6292756918,-1.2201845135,-1.3106246021,-0.0385968093,0.5266241378,-0.4538197692,-1.0252170487,-1.1614026026,0.3195955485,0.8944328779,0.1048938247,-0.4269108447,-0.8930474864,0.7450647780,-1.0636240758,-1.3114077106
0.1191840942,-0.0107547198,-0.1831142097
