0.3074043516,0.2006425534,-2.2590151530,0.2222784412,0.9756229225,-0.4343418164,0.5254142344,-9.4142505015,0.5263160956,0.5318914422,-2.1428085341,-0.8229933497,-1.8497299801,0.3644444780,-11.1160823725,0.3579013898,-0.0304635923,8.3766941006,0.1674663431,-10.8354895545,0.4878593017,0.4012871040,0.5884462671,3.7222280218,2.6013576617,-0.0298554514,0.2182111786,-1.3307023088,-5.0533025180,-7.6028235839,-5.7496342919,-5.6685608863,-1.3293528830,-4.8929833648,-3.1994784889,-1.6327303599,0.8779233221,-0.8980270590,-4.4304490245,3.5910307283,4.3256642571,0.4919328975,0.4412621757,1.0638404891,-1.1300306361,-8.7670703116,-5.8931353167,3.3471076756,0.2772117010,-3.1536763775,5.5560234688,4.4009753998,1.4916864935,0.1383564324,-0.5437862818,0.3690635984,-5.5559920575,3.4899937720,0.2808201631,0.3112706824,-0.1137197339,0.4875532582,6.1576283363,-1.5286300583
0.2385018212,-2.0985375716,3.3409187245,0.5346572008,0.2477176409,1.3840535743,-0.9717625254,0.3391789461,0.9641411064,0.0762439571,1.0387154933,1.6232702049,-1.5411056919,-1.1046740037,-4.0065400669,-0.3214170159,0.4180448961,-2.7758766770,0.0376502499,2.6617243895,-1.5432847314,-0.3065132746,0.4240167927,0.3053273133,0.3041546161,0.9867550897,0.7781404331,0.1150126771,-0.7762611350,1.5836877574,1.7420408258,-1.3251505662
6.5756356490,-1.5595800721,-5.0182056096
