0.6380660635,-0.0051140364,0.3154180638,-0.6552471387,-0.2576504124,-0.0085536993,0.4877594408,-0.4230989305,-0.3579340239,0.2673548501,0.4764777134,-0.5304754318,-0.4982858849,0.2818481266,-0.5939701998,0.0763883296,-0.2472594876,0.6834523596,0.5412550415,0.6518499453,-0.2704362925,0.0596222592,-0.6061048821,-0.2244630257,0.5717112479,0.5840012143,0.6662859272,0.5245910759,0.5948645441,-0.6014933359,-0.4999525735,0.5540846779,-0.0951269152,0.6774746636,0.4832798163,0.6553835799,-0.2776094220,-0.2910131774,0.7062388669,0.2622076603,0.2346859875,0.1257662161,-0.4964817437,-0.5086475691,0.0812903992,0.1174386626,-0.4505300166,-0.3585758776,-0.6207853110,0.5289412497,0.1691303604,0.0047076657,-0.0742225044,-0.1212701721,-0.3060383946,-0.0925718060,-0.2194249712,0.3934793305,0.3444905977,0.0631513834,-0.6890838227,-0.4369453432,0.2706470306,0.6538274412,0.4384251750,0.5592559454,0.5513387870,0.4237324655,-0.3079523436,0.2665996576,0.5118794217,0.4963411141,-0.4406996409,-0.6024377427,0.5979646582,0.5904357249,-0.0833381691,-0.5931807281,0.6171174262,0.0503154745,-0.0475311628,0.1744102298,-0.3519817588,-0.1020889648,-0.3681802613,0.5928979879,0.2877229923,0.5641614849,-0.4398585030,-0.6075699078,0.6086929468,-0.1185528008,0.1099870880,0.1758614887,-0.0023040026,-0.5396052657,0.2058746435,-0.4454535499,0.1087867668,-0.1989465880,-0.4944433805,-0.1910030661,0.0762544923,0.3317638418,-0.2891870355,0.2855081787,0.1093419725,0.6471143057,-0.6663725185,-0.5657184817,-0.2727422717,-0.5132040814,-0.1324787570,-0.5983214036,0.4848119148,-0.4646941084,0.5876244966,-0.6626060397,0.5120940019,-0.1398511167,-0.0547769252,0.0172480548,-0.0257234113,0.4159760506,-0.5623702814,-0.5680822159,-0.4020435353,-0.0332959402,0.4237036891,0.6226159383,0.5399268455,-0.4579372659,-0.4014223862,0.5068613475,-0.4038326308,-0.4041396113,0.0932929959,-0.3874589160,0.4314538715,-0.6419287293,0.1391135857,0.3870155509,0.6021904316,-0.5118819940,-0.5395733375,-0.6717214363,0.0446881859,0.1269395863,-0.5746380147,-0.2766948617,-0.4763478833,-0.1158976362,-0.5194966599,0.1741718025,-0.1165896493,0.5777619476,0.4547345506,0.3135015037,-0.3399609198,-0.3003875111,0.1295184618,0.3421146508,-0.2714088619,0.6842097332,0.5425110710,0.5487331114,0.4707636228,-0.4006738990,0.3587636589,-0.4658145231,0.1415909583,-0.4021890433,0.3495775011,0.7059221887,0.5966505794,-0.2820833929,-0.5317240968,-0.2713938451,-0.4776166325,-0.2265622654,0.6451287551,-0.0963950586,0.5769927393,0.2545726619,0.6067017631,0.3567476395,-0.4079275086,0.0697133185,0.7029141582,-0.4618426417,0.4289653675,-0.0398092022,-0.1502467672,0.5880054797,0.0837234216,-0.0029485076,-0.0580922667,-0.5493687742,0.1593615277,-0.1312915040,-0.4431498453,0.6433836912,0.2728004205,0.0762977626,-0.3552053605,-0.5410475322,0.0073325786,0.2020693567,0.6529145668,0.6520943641,-0.4051303046,0.4132737059,0.6883710174,-0.2294645501,-0.0503086295,0.1625735923,0.1137640113,0.0150013887,0.3983259942,-0.2220196195,0.6258467860,-0.3135452119,-0.3946437650,-0.1161504969,-0.5266853594,-0.4381480832,-0.1448143888,-0.0338918031,0.3085304469,-0.4499124882,0.1207286799,-0.3095391863,0.4665924769,0.2055560627,-0.1429865379,-0.4259006225,0.6372896573,-0.3262508872,-0.3926793926,0.3721447269,-0.4301621009,-0.2746995522,0.5319072459,0.5211541532,-0.6009530377,0.0955584377,-0.4959440816,0.0425576074,-0.3263543880,0.6962096825,-0.0068805010,0.3249316269,-0.5669239889,0.6795014732,0.6067445632,-0.3381242273,-0.5437952472,0.4955331630,0.1222012559,0.3984148299,-0.1431719327,0.7008102146,-0.4674849838,0.3504291032,-0.5375505153,-0.6152743834,-0.1869929673,-0.4082662738,0.0329413015,0.6869509867,-0.0542902752,-0.2889083889,-0.6881319071,0.0055501199,-0.0572294226,-0.1896833982,-0.3715044991,-0.1232385813,0.5520321382,-0.6510356458,-0.1857675655,0.3880725833,-0.0170419218,0.6617734860,-0.3626884031,-0.4435368673,-0.2044407748,0.5028544696,0.1348224938,0.3915269950,0.0584991577,0.3169170593,0.4967392220,0.5934461894,-0.3981506001,0.3414413042,-0.2746368910,0.1708399426,0.4533844883,0.2504207514,0.1220079763,-0.0216069457,0.3049483935,0.1576989879,0.2106744399,-0.3854488412,0.2736545988,0.2903372533,0.6614258977,-0.5477515950,0.4692344541,-0.6455675401,-0.2071951649,-0.5353453533,-0.3226697880,0.3978849334,-0.5638613954,-0.1733913048,0.5064929630,0.4757963924,-0.6677277807,0.6980201564,-0.6909447937,-0.6015873714,-0.6661944323,-0.4010501689,-0.3083509988,0.6374697508,-0.1278468302,-0.5312736115,0.2288443335,-0.4741761471,-0.3850795137,-0.5901248228,-0.3481835599,0.0946299012,-0.5455088834,-0.0212792375,0.1558860452,-0.5609693524,0.3499140937,0.7061803539,0.6929932879,-0.3247091522,0.0634168309,-0.4703494279,0.2909791195,0.1355627914,0.1057856991,0.2737973831,-0.1383140876,0.3222262444,0.6327598991,-0.0903650747,0.0995550436,0.2069732347,-0.3662076847,-0.1951332439,-0.0431790272,-0.2183519125,0.0436016593,0.2504623675,-0.5927644378,0.5426415240,-0.0871694796,0.0678070066,-0.2237705174,-0.5172241051,0.1852338066,0.5405367723,-0.1063924511,-0.5719826104,0.5120637622,-0.6480898432,-0.1731377559,0.5252478871,0.3201822053,0.2197189461,0.3047165812,0.5042707401,-0.1035509606,0.5159003042,0.1930614280,0.5775078193,0.4262396478,-0.5961457181,0.2820057782,0.6414667465,0.5816228354,0.2908509760,-0.6039321514,-0.4769319853,-0.0334046527,0.0107858030,0.2576545481,0.0780617287,-0.4067115134,-0.7062589493,-0.5997311248,-0.5809553663,-0.3864062530,-0.2612157072,-0.5334933122,-0.3081119761,0.4120832557,0.4794635542,0.1550762205,-0.0295573639,-0.3816552251,0.3933501564,-0.4123260117,-0.3168224442,-0.3207573846,0.0127365040,0.5161748211,0.5642264885,0.6526571925,0.5690445128,-0.3951961284,0.4997723398,0.6593673099,0.2089032779,-0.4548844459,-0.0043641280,0.1912054592,0.4969395157,-0.2828586513,0.5806444134,-0.5971378285,0.5781678132,0.2050497144,-0.1679008229,-0.5530743415,0.1052872086,0.3809483540,0.4541886805,-0.3756571886,-0.6210259985,-0.6878661199,0.2299956840,0.4917951603,-0.4770130271,0.0187393051,-0.4181232139,-0.1696641727,-0.4912083932,0.4393128772,-0.0774824980,0.2423473685,0.1971629683,0.2156314394,-0.5117581639,0.1274251734,0.5155550978,0.0480317620,-0.2461209603,0.0196909408,0.0196682823,-0.3611538146,-0.1075522896,-0.2663978381,0.0516742210,0.1615053831,0.5451475947,-0.3940459040,0.0326035353,0.6669693647,0.6974164831,0.4768271779,-0.3138790591,-0.3487587814,0.3263769892,-0.3163505154,0.5398821402,0.2049144211,0.3866508101,0.1288460082,0.3538950433,-0.2682502698,0.0305529917,0.1446082196,-0.6027670202,-0.6935619754,0.6662744994,0.3325253379,-0.2186443398,-0.6285840822,-0.4373584455,0.3987038835,0.4723116376,0.1609682749,0.0032507387,-0.5191638927,0.1101350405,-0.1659269517,0.0948679867,0.6275681956,0.3339157203,0.5220954266,-0.3373190006,0.2617284506,0.6658904751,-0.4649168749,-0.3279851016,0.1588639822,-0.0082577270,-0.1946884880,0.3607661808,0.6636590675,0.2155817410,0.0671747526,0.4636434165
0.1381720777,0.1194412497,0.6800393217,-0.2531315340,-0.4272965426,-0.1965222460,0.6534936270,0.4848635664,0.4034146927,0.4509229833,-0.1079009606,-0.4696570810,0.6135456303,-0.5838889898,-0.1943415568,0.5347833515,-0.6376144916,0.5236146750,-0.2591560849,0.1414534529,0.1151846485,-0.1499791130,-0.5703842919,0.5049446563,-0.0907489752,-0.6958063556,-0.2854720825,0.4973258792,0.5538976572,-0.4099569215,-0.0975038552,0.3262236366,-0.0653209669,-0.4197660552,0.5033724998,0.3560748256,-0.4022013982,0.1419277972,-0.3977913871,-0.6923339492,0.0925064020,0.5343933983,-0.1204897645,0.0823485815,-0.4824686877,0.2493329459,0.2240363956,-0.6710164875,0.5790549596,-0.4410302539,-0.5021970374,-0.3990675601,0.4864436439,0.0897186909,0.3503805019,0.0598219517,-0.0783013882,0.6213951002,-0.1797096798,0.3795816548,0.1114930640,0.0309567572,-0.1403729710,-0.3403020479,-0.3768720774,0.1735407739,0.5914221258,-0.4754611300,0.6456282677,-0.1863682490,0.1918804278,0.5274284169,0.1987934356,-0.6653759135,0.6278732209,-0.1963782467,0.2452630368,-0.2966750435,0.2995649357,0.1875918602,0.5743641089,-0.0841989486,0.4960461323,0.2583947969,-0.2084986108,0.1850555630,0.3732231699,-0.6895465160,0.2718485359,-0.3656774971,0.2304483445,-0.3856220990,0.1901380172,-0.4729960597,-0.3503405777,0.6111850999,-0.6593436669,0.1884657145,-0.2951155515,-0.3601106030,0.4551414969,0.0819795140,0.3856826561,-0.5865680838,0.0329585501,-0.4373653931,0.2819348213,-0.5511050933,0.6755310709,0.3442292359,-0.0869161619,0.0826770075,-0.6194667442,0.0626762989,-0.1885483961,0.3196997970,0.5971653926,-0.1148990108,-0.7061614122,-0.3746398723,-0.4935543032,0.6095823658,0.6877770050,-0.3135362696,-0.2443492536,0.0982799118,-0.0109639775,-0.4238059940,0.4863729109,0.3151235871,0.0523365759,-0.0200052055,0.3553394343,-0.0340023286,-0.1348580770,0.4246408104,-0.5977483204,0.2171265192,0.5744169320,-0.6106134575,0.3674411425,-0.2873446901,0.1371095070,0.6455903981,0.5913709135,0.0780260922,0.4085597713,0.6572301960,-0.3542310920,0.2771344026,-0.6215692108,0.0818598341,-0.2115643258,-0.4287282882,-0.2182394258,0.5199511563,0.3934825238,0.3981600937,-0.1818827449,0.6264279903,-0.4447380887,-0.5943790229,0.2763660702,0.6072031124,0.2976435405,0.4216156664,-0.5296561893,0.5428014101,-0.2283918371,-0.4059970835,-0.0125439113,-0.1076971338,0.1276323060,-0.2458069267,-0.3592016990,0.1747423859,-0.4262897710,-0.2462738894,0.2778373146,-0.1214362484,-0.2688567181,-0.2625298150,0.0077141334,-0.4562075837,0.3850767412,0.5435278795,0.6676712572,-0.2337976248,0.6628102649,0.0918916204,0.1012541260,0.4791793533,-0.3788460968,-0.4768918898,0.6404801198,-0.4442641441,0.3001401322,-0.0445758178,0.3474176423,-0.2394842067,-0.1592626874,0.3782866402,-0.4406139609,-0.5766286669,0.2075375817,0.6334903040,-0.5423722333,0.3704976418,0.1715513643,-0.3176733799,-0.4802972675,-0.0251616472,-0.0419488370,0.6584635182,0.5752244960,0.2341911315,0.2940023485,0.0352844582,0.4704055313,0.6519504267,0.0041406924,0.2961532569,-0.5839500382,0.1938316643,-0.6192664604,0.6004189982,-0.5858776796,0.3228739961,0.2058129168,-0.0686805310,-0.3154182377,0.6523251451,0.6451787709,-0.6699931231,-0.6060369486,-0.4969186596,0.6333872009,0.5532020090,0.6262054563,0.0577729352,-0.5749954759,-0.6276918716,0.4158892801,-0.6065082261,0.0676017857,0.5697223684,-0.3161844246,0.5029439632,0.2247272700,-0.3731983770,-0.3079730509,-0.0814274884,0.4069301047,0.1374828661,-0.1504297629,0.3408240524,0.6649207400,0.2073079492,-0.3975159048,-0.3049429697,-0.0665416424,0.2775448168,0.6194072796,0.3521158411,-0.4728170100,-0.1694795504,-0.2166886167,-0.2856580397,0.2003709474,0.3920201052,-0.1390786604,0.1999731167,-0.6374660307,0.1903708522,0.6118345993,0.3572978034,0.3533955709,-0.1776019218,0.4493307656,0.0017535568,-0.2264549852,-0.3802401638,0.1346555647,0.4143754074,-0.5943217717,-0.1756261473,-0.2849534932,-0.6862384856,-0.6986268827,0.3931912246,-0.2550658939,-0.4111715542,0.7013684305,0.4291684580,0.5451059846,0.3208261235,-0.2716557812,-0.6373356112,-0.4460962149,0.6212241980,-0.2236354618,0.3384422194,0.2314333025,0.6122181692,-0.2671105749,-0.6135845838,-0.0708035975,-0.6424577388,-0.2666670688,-0.2306467389,-0.1203660563,-0.6669140792,0.2317664114,0.5539257810,0.0627198149,0.5428243867,0.1577761799,0.0938260330,0.0860145901,0.3209549697,0.4796488857,0.4415164027,0.1876177259,-0.4051254294,0.4952112763,0.3691061169,-0.5883916555,0.4968882573,0.2698538000,0.0499213013,0.3986688107,-0.1171562972,-0.4606081835,-0.0367000351,-0.2203773069,-0.0560776171,-0.6302775564,-0.6153081344,0.6599664524,0.3791959447,0.6999299302,0.2939251862,0.1526309321,-0.1153256962,0.6078171854,-0.6953400870,0.4800366281,-0.1127641293,-0.1805480965,0.4304474470,-0.5863441668,-0.4463093429,-0.1323918462,-0.5518259414,-0.1260542305,-0.1015362741,0.4356113388,-0.0638418292,0.3984710828,-0.6119434771,0.6412197653,0.6732506465,0.2009027490,-0.5694838146,0.0829174013,0.5924042271,0.4743654707,-0.6755986955,-0.0665826361,-0.4114369226,0.4839622146,-0.6034701278,0.2172313819,-0.4915831933,-0.2030976529,0.4492879095,0.6956846303,-0.3461525968,0.2879015178,-0.6780013036,0.5649763225,0.5271938861,0.4996758333,0.4515977240,-0.0812416419,0.7020255861,0.1602747656,-0.3388510702,-0.0319204245,-0.4996337636,0.2554693848,0.1215749418,-0.2285500175,-0.2361081980,0.0127724572,-0.2937726798,-0.4178830631,-0.3760909139,0.5746339949,0.2091348280,0.6083522376,-0.1879980189,-0.3296046028,-0.1900352678,-0.6285217832,0.6097003270,-0.1580774666,0.4993018644,-0.1768447912,0.4465026448,0.5527899392,-0.6425963822,0.2315808467,0.2635674711,0.4616086759,-0.1185864906,-0.4562377160,-0.1213578757,-0.3658599185,-0.0070816495,-0.2273435633,0.2417776300,0.5210635361,0.7044734718,0.2896959113,-0.2181143050,-0.2055703064,-0.0964066417,0.3823149162,-0.6196314422,0.1230236291,0.0779065835,-0.1858094897,-0.3165484627,0.0414092639,0.1724250744,0.2246365957,-0.4829483596,0.6727675870,0.5674027877,0.2966010712,-0.1286043065,-0.5342562735,-0.4032813223,0.3764199260,-0.7017813912,-0.2987319513,-0.3297588840,0.0453881786,0.5780074063,0.3375171593,0.2402973043,-0.3171405581,-0.0104430490,-0.1538427008,-0.4518801632,-0.4230733540,0.0719310791,-0.2069498867,-0.6555954199,-0.4543573061,0.3699940272,0.1925810013,-0.4259552106,-0.2801720584,0.4793774165,0.1215747752,-0.2313502613,-0.6307592007,-0.2250226252,-0.3481963930,-0.1210552850,0.4771406984,-0.7013937936,0.5587660844,-0.6106866679,0.5512076300,-0.3664103663,0.6410384575,0.4544369070,-0.4463551138,0.5125515619,0.4792922786,0.1048747931,0.5205492952,0.5469073185,-0.5168531279,-0.6508198803,0.6121764497,0.4459241385,-0.6848845050,-0.5696905930,-0.5639794678,0.6705926482,-0.6314533474,-0.5778384106,-0.3256336933,0.0810025409,-0.4779562017,-0.2768485028,-0.2301661878,-0.5290247070,-0.1575844045,0.3009160708,0.2687026411,0.5013843902,-0.5311721370,0.5201121000,0.2700356274,0.2774678171,-0.6747259739,0.4591140349
0.0398791290,-0.0003196273,0.0197136290
-0.0409529462,-0.0161031508,-0.0005346062
0.0304849651,-0.0264436832,-0.0223708765
0.0167096781,0.0297798571,-0.0331547145
-0.0311428678,0.0176155079,-0.0371231375
0.0047742706,-0.0154537180,0.0427157725
0.0338284401,0.0407406216,-0.0169022683
0.0037263912,-0.0378815551,-0.0140289391
0.0357319530,0.0365000759,0.0416428704
0.0327869422,0.0371790340,-0.0375933335
-0.0312470358,0.0346302924,-0.0059454322
0.0423421665,0.0302049885,0.0409614737
-0.0173505889,-0.0181883236,0.0441399292
0.0163879788,0.0146678742,0.0078603885
-0.0310301090,-0.0317904731,0.0050806500
0.0073399164,-0.0281581260,-0.0224109923
-0.0387990819,0.0330588281,0.0105706475
0.0002942291,-0.0046389065,-0.0075793858
-0.0191273997,-0.0057857379,-0.0137140607
0.0245924582,0.0215306624,0.0039469615
-0.0430677389,-0.0273090839,0.0169154394
0.0408642151,0.0274015734,0.0349534966
0.0344586742,0.0264832791,-0.0192470215
0.0166624786,0.0319924639,0.0310213196
-0.0275437276,-0.0376523589,0.0373727911
0.0369022328,-0.0052086356,-0.0370737955
0.0385698391,0.0031447172,-0.0029706977
0.0109006394,-0.0219988599,-0.0063805603
-0.0230112663,0.0370561242,0.0179826870
0.0352600928,-0.0274911564,-0.0379731192
0.0380433092,-0.0074095500,0.0068741930
0.0109913430,-0.0001440002,-0.0337253291
0.0128671652,-0.0278408469,0.0067991729
-0.0124341618,-0.0309027113,-0.0119376916
0.0047659058,0.0207352401,-0.0180741897
0.0178442612,0.0068338733,0.0404446441
-0.0416482824,-0.0353574051,-0.0170463920
-0.0320752551,-0.0082799223,-0.0373950877
0.0303007447,-0.0290433818,0.0367265310
-0.0414128775,0.0320058751,-0.0087406948
-0.0034235578,0.0010780034,-0.0016077132
0.0259985032,-0.0351481426,-0.0355051385
-0.0251277210,-0.0020809963,0.0264814806
0.0389134961,0.0337454278,-0.0286210791
-0.0250888991,0.0316788342,-0.0252395394
-0.0252587257,0.0058308122,-0.0242161822
0.0269658670,-0.0401205456,0.0086945991
0.0241884719,0.0376369020,-0.0319926246
-0.0337233336,-0.0419825898,0.0027930116
0.0079337241,-0.0359148759,-0.0172934289
-0.0297717427,-0.0072436023,-0.0324685412
0.0108857377,-0.0072868531,0.0361101217
0.0284209094,0.0195938440,-0.0212475575
-0.0187742194,0.0080949039,0.0213821657
-0.0169630539,0.0427631083,0.0339069419
0.0342958195,0.0294227264,-0.0250421187
0.0224227287,-0.0291134077,0.0088494349
-0.0251368152,0.0218485938,0.0441201368
0.0372906612,-0.0176302121,-0.0332327560
-0.0169621153,-0.0298510395,-0.0141601416
0.0403205472,-0.0060246912,0.0360620462
0.0159107914,0.0379188602,0.0222967275
-0.0254954693,0.0043570824,0.0439321349
-0.0288651651,0.0268103355,-0.0024880751
-0.0093904230,0.0367503425,0.0052327138
-0.0001842817,-0.0036307667,-0.0343355484
0.0099600955,-0.0082057190,-0.0276968653
0.0402114807,0.0170500263,0.0047686102
-0.0222003350,-0.0338154708,0.0004582862
0.0126293348,0.0408071604,0.0407558978
-0.0253206440,0.0258296066,0.0430231886
-0.0143415344,-0.0031442893,0.0101608495
0.0071102507,0.0009375868,0.0248953746
-0.0138762262,0.0391154241,-0.0195965757
-0.0246652353,-0.0072594061,-0.0329178350
-0.0273842552,-0.0090508993,-0.0021182377
0.0192831529,-0.0281195305,0.0075455425
-0.0193461991,0.0291620298,0.0128472539
-0.0089366586,-0.0266187889,0.0398306036
-0.0203906804,-0.0245424620,0.0232590454
-0.0268851313,-0.0171687220,0.0332442029
0.0325721346,-0.0375595649,0.0059724024
-0.0309965051,0.0026598505,-0.0203971492
0.0435131052,-0.0004300313,0.0203082267
-0.0354327493,0.0424688421,0.0379215352
-0.0211327642,-0.0339872030,0.0309708227
0.0076375785,0.0249009269,-0.0089482458
0.0438006384,-0.0292178115,0.0219018189
-0.0335969072,-0.0384546490,-0.0116870605
-0.0255166421,0.0020588313,0.0429344367
-0.0033931422,-0.0180567743,-0.0430082442
0.0003468825,-0.0035768389,-0.0118552124
-0.0232190312,-0.0077024113,0.0345020086
-0.0406897279,-0.0116104728,0.0242545365
-0.0010651201,0.0413608429,-0.0226680252
-0.0277210542,-0.0127775484,0.0314284044
0.0084264059,0.0244704372,0.0036561974
0.0198073162,0.0310462014,0.0370903868
-0.0248844125,0.0213400815,-0.0171648057
0.0106774964,0.0283365305,0.0156512970
0.0076254985,-0.0013504341,0.0190592746
0.0098561867,0.0131671525,-0.0240905526
0.0171034124,0.0181460783,0.0413391186
-0.0342344747,0.0293271534,-0.0403479713
-0.0129496978,-0.0334590846,-0.0201668617
0.0248678083,-0.0352413372,-0.0108369565
0.0316558102,0.0297372745,-0.0417329863
0.0436262598,-0.0431840496,-0.0375992107
-0.0416371520,-0.0250656356,-0.0192719374
0.0398418594,-0.0079904269,-0.0332046007
0.0143027708,-0.0296360092,-0.0240674696
-0.0368828014,-0.0217614725,0.0059143688
-0.0340943052,-0.0013299523,0.0097428778
-0.0350605845,0.0218696309,0.0441362721
0.0433120805,-0.0202943220,0.0039635519
-0.0293968392,0.0181861950,0.0084726745
0.0066116062,0.0171123364,-0.0086446305
0.0201391403,0.0395474937,-0.0056478172
0.0062221902,0.0129358272,-0.0228879803
-0.0121958277,-0.0026986892,-0.0136469945
0.0027251037,0.0156538980,-0.0370477774
0.0339150953,-0.0054480925,0.0042379379
-0.0139856573,-0.0323265066,0.0115771129
0.0337835483,-0.0066495282,-0.0357489132
0.0320039851,-0.0405056152,-0.0108211097
0.0328279929,0.0200113878,0.0137324341
0.0190447863,0.0315169213,-0.0064719350
0.0322437690,0.0120663392,0.0360942387
0.0266399780,-0.0372591074,0.0176253611
0.0400916717,0.0363514272,0.0181781860
-0.0377457595,-0.0298082491,-0.0020877908
0.0006741127,0.0161034093,0.0048788580
-0.0254194696,-0.0441411843,-0.0374831953
-0.0363097104,-0.0241503908,-0.0163259817
-0.0333433320,-0.0192569985,0.0257552035
0.0299664721,0.0096922638,-0.0018473352
-0.0238534516,0.0245843848,-0.0257703757
-0.0198014028,-0.0200473365,0.0007960315
0.0322609263,0.0352641555,0.0407910745
0.0355652820,-0.0246997580,0.0312357712
0.0412104569,0.0130564549,-0.0284302779
-0.0002727580,0.0119503412,0.0310587197
-0.0176786657,0.0362902758,-0.0373211143
0.0361354883,0.0128156072,-0.0104938014
-0.0345671463,0.0065804505,0.0238092721
0.0283867925,-0.0234785743,-0.0388141249
-0.0429916325,0.0143747303,0.0307371975
-0.0298133142,0.0011712066,-0.0261327009
-0.0106040108,-0.0307005246,0.0274570548
-0.0048426561,0.0151467105,0.0123226855
0.0134769650,-0.0319848852,0.0079640733
0.0322221936,0.0030019851,-0.0153825600
0.0012306838,0.0012292676,-0.0225721134
-0.0067220181,-0.0166498649,0.0032296388
0.0100940864,0.0340717247,-0.0246278690
0.0020377210,0.0416855853,0.0435885302
0.0298016986,-0.0196174412,-0.0217974238
0.0203985618,-0.0197719072,0.0337426338
0.0128071513,0.0241656756,0.0080528755
0.0221184402,-0.0167656419,0.0019095620
0.0090380137,-0.0376729388,-0.0433476235
0.0416421562,0.0207828336,-0.0136652712
-0.0392865051,-0.0273349028,0.0249189927
0.0295194774,0.0100605172,0.0002031712
-0.0324477433,0.0068834400,-0.0103704345
0.0059292492,0.0392230122,0.0208697325
0.0326309642,-0.0210824375,0.0163580282
0.0416181547,-0.0290573047,-0.0204990688
0.0099289989,-0.0005161079,-0.0121680305
0.0225478863,0.0414786917,0.0134738588
0.0041984220,0.0289777135,0.0086357549
0.0074650781,0.0425024576,-0.0158207209
-0.0267060339,-0.0122826404,0.0408433517
0.0303039729,0.0252134183,0.0281826865
-0.0067438100,-0.0293535676,0.0383466019
-0.0364930619,-0.0121463473,0.0334239595
-0.0398509057,0.0327259172,-0.0161972553
0.0088408408,0.0071990405,-0.0093736946
-0.0356490182,0.0315590410,-0.0056718110
-0.0434878972,-0.0178420052,0.0310828674
0.0346186036,-0.0256223076,-0.0060939910
0.0203889773,-0.0040825604,-0.0262353785
0.0314607812,0.0222546766,-0.0251375874
0.0088704873,-0.0248619617,-0.0432708718
0.0057816501,0.0333995874,-0.0075306103
0.0051467863,-0.0301542930,0.0155833091
0.0140022747,-0.0419385305,0.0361909350
-0.0275643909,-0.0313873148,-0.0249417225
0.0304027277,0.0056074182,0.0218987814
0.0037388720,-0.0048938368,0.0388371938
-0.0112318550,0.0237238534,0.0069683165
0.0019347973,-0.0087733107,-0.0212688780
-0.0235545048,0.0108462984,0.0369638829
-0.0297163206,0.0403517667,-0.0116480156
0.0119925267,0.0329642761,0.0124245897
-0.0415859946,0.0392420763,-0.0122736404
0.0153289398,-0.0185421902,0.0187228085
0.0117244913,0.0358977568,-0.0052624343
0.0310028833,0.0161496748,-0.0130311632
0.0115659727,0.0233264481,-0.0430966573
0.0169905335,-0.0228548436,0.0144030215
-0.0241013812,0.0118836261,-0.0295622537
-0.0218962861,0.0381990687,-0.0412089792
0.0117791072,-0.0184447220,-0.0225069127
0.0284463436,0.0051237196,0.0241051660
-0.0366605052,0.0020599094,-0.0273353371
0.0176209263,-0.0344440683,0.0422206919
0.0215143272,-0.0054322601,0.0051673130
-0.0387166715,0.0039172687,-0.0117842748
0.0199812373,0.0373228370,-0.0071811882
-0.0441350883,-0.0234149920,-0.0308471440
0.0380988979,0.0429860628,-0.0195960168
-0.0152718283,0.0061424945,-0.0006852486
-0.0264878746,0.0303983069,0.0196952242
0.0032710360,-0.0012503253,0.0222087146
-0.0021251455,-0.0084286298,0.0265400507
-0.0373592700,0.0135704074,0.0359010583
-0.0381633411,0.0229650714,-0.0179590431
0.0085693442,0.0403493999,0.0369606821
0.0048766308,0.0255349857,0.0410768873
-0.0221394432,0.0173209002,-0.0388480757
0.0051162396,-0.0132227704,-0.0267955180
-0.0136399641,0.0324969473,0.0245926577
0.0248850059,-0.0113676716,0.0391517494
-0.0277961305,-0.0371486889,0.0172728794
0.0379501945,0.0186027213,0.0263509791
-0.0331035118,0.0339250881,-0.0142744898
-0.0253748177,-0.0007839945,-0.0067310709
0.0079770191,-0.0153629329,-0.0224501062
0.0109213991,-0.0266431107,-0.0153921181
0.0173648322,-0.0075897655,-0.0168035449
-0.0164081134,0.0004821333,-0.0285129740
0.0240672963,0.0339704925,0.0417294536
-0.0146123515,0.0414256416,0.0057432263
0.0063283829,0.0299487096,-0.0236778811
-0.0298057431,0.0400300075,-0.0277665090
0.0187587583,-0.0027859886,0.0217136026
-0.0149677629,-0.0099539180,0.0236429150
-0.0275383726,-0.0360392917,0.0129710989
0.0395931440,-0.0338982646,0.0231561026
0.0107219603,-0.0198545862,-0.0300185792
-0.0015726029,-0.0026218023,0.0411539699
0.0359515310,0.0146369457,0.0183751468
0.0022052786,0.0294003457,0.0407469017
0.0002587933,0.0185095786,-0.0364968774
0.0121144790,-0.0387041538,0.0375261874
-0.0366173550,0.0201796248,0.0128633073
-0.0042925332,-0.0197136399,0.0407703216
0.0403236732,-0.0418745702,-0.0378773093
-0.0310574162,0.0395867001,0.0345751256
0.0391378410,0.0036108084,-0.0359372172
-0.0392307420,0.0259930800,-0.0379067641
0.0042251116,0.0356076480,-0.0197615265
0.0314339977,0.0140454544,-0.0233248986
-0.0192483157,-0.0050892180,0.0254331315
0.0085926791,-0.0094018602,0.0213015033
0.0415575463,0.0129567468,-0.0248447440
-0.0190589356,-0.0041588526,0.0173465511
0.0387129550,0.0220072401,-0.0295510631
-0.0105924719,-0.0135430385,-0.0178536275
0.0125231842,0.0245012566,-0.0086924163
0.0124983198,-0.0398416269,0.0118981783
0.0382396625,0.0223311127,0.0220872232
-0.0111001201,0.0280831728,0.0001095973
-0.0141534366,-0.0237650102,0.0084159728
0.0258984630,-0.0371451107,-0.0109766342
-0.0178095933,-0.0428899054,-0.0436641802
0.0245744515,-0.0159416184,-0.0256982221
0.0438355269,0.0268230286,0.0340691240
0.0200516327,-0.0169784863,-0.0398334757
-0.0278810134,0.0388265124,-0.0139772164
0.0211526387,0.0144645814,0.0382636356
-0.0166944109,-0.0383490365,-0.0044252248
-0.0401536087,-0.0166666918,-0.0144154212
-0.0075228785,-0.0416821299,0.0144854007
0.0346203613,0.0039199884,0.0339265242
0.0098610112,0.0058641271,0.0053759119
0.0200596856,0.0299780554,0.0275947752
0.0117261079,-0.0253203393,0.0309507048
0.0230691323,-0.0367744785,0.0310555161
0.0168658625,0.0031200813,0.0249168007
-0.0073222686,-0.0287880115,-0.0022937522
-0.0137735817,-0.0035048511,-0.0393923473
-0.0384567584,0.0412479033,0.0236997465
0.0437456206,0.0183703241,0.0095394333
-0.0072078560,0.0379885741,-0.0434587554
0.0300022893,-0.0070477581,-0.0112842560
0.0269029654,-0.0366465104,-0.0278943339
-0.0082744904,-0.0344891213,-0.0078783894
-0.0063460171,0.0272257087,-0.0039901143
0.0249044427,-0.0382464673,0.0400762353
0.0420781654,0.0125564218,-0.0355927384
0.0051823376,0.0370252642,0.0296478419
-0.0422249185,-0.0041614148,-0.0257148077
0.0302476384,-0.0377168830,0.0135769614
-0.0307239496,-0.0126936033,0.0280804943
0.0434802894,-0.0216345373,0.0179938449
-0.0423750815,0.0353110202,0.0329496179
0.0312297396,0.0282248578,-0.0050776026
0.0438765991,0.0100171728,-0.0211781919
-0.0019950265,-0.0312271102,0.0159668365
0.0075984339,-0.0142843761,-0.0147567624
0.0007982786,-0.0183607925,-0.0261176914
-0.0235056821,0.0359146247,0.0130709268
0.0380220149,-0.0117498762,-0.0206002877
-0.0118772042,-0.0392826115,0.0381062704
-0.0098798417,0.0312063665,-0.0110527994
0.0279064153,0.0345493712,-0.0401622739
0.0144738029,0.0164729669,0.0288505422
-0.0074116557,-0.0285148573,-0.0075848672
-0.0228662449,-0.0004426031,-0.0142089727
0.0151111019,0.0325664710,0.0440295920
0.0181059945,-0.0136321441,-0.0128481441
-0.0060254151,0.0238946823,-0.0387269651
0.0076889768,0.0048691615,-0.0116130931
-0.0197842789,0.0025880790,0.0107765672
0.0140397872,-0.0301842725,0.0420479742
0.0354626742,0.0185375669,-0.0080377692
-0.0333910171,-0.0252050826,0.0235262454
-0.0438613370,-0.0186707470,-0.0206099302
0.0028367612,0.0361254629,0.0210948225
0.0150185815,-0.0198212849,-0.0006526906
-0.0096151688,-0.0282425102,-0.0264420846
0.0044956924,-0.0129343679,-0.0409747137
-0.0283973316,0.0231246267,0.0120363126
-0.0266222007,-0.0175107536,0.0299610885
0.0075984235,-0.0144593913,-0.0394224500
-0.0140639141,-0.0217622746,-0.0075659553
0.0298212937,-0.0438371121,0.0349228803
-0.0381679167,0.0344504769,-0.0229006479
0.0400649036,0.0284023067,-0.0278971946
0.0320344726,0.0299557674,0.0065546746
0.0325343309,0.0341817074,-0.0323033205
-0.0406762425,0.0382610281,0.0278702587
-0.0428052816,-0.0356056621,-0.0352487167
0.0419120405,-0.0394658342,-0.0361149007
-0.0203521058,0.0050626588,-0.0298722626
-0.0173030314,-0.0143853867,-0.0330640442
-0.0098490253,0.0188072544,0.0167939151
0.0313365244,-0.0331982586,0.0325070062
0.0168772267,0.0173417386,-0.0421703734
0.0286946272,0.0237743048,-0.0289794595
-0.0379795158,0.0189245673,0.0439270106
-0.0266009184,-0.0133731132,0.0096553099
-0.0042130286,-0.0093050968,-0.0317752970
-0.0050207775,0.0266643301,0.0184741331
-0.0135109559,-0.0089700561,0.0307877191
0.0238073998,-0.0030813629,0.0071053291
0.0066080590,-0.0425056024,-0.0370345737
-0.0093368476,-0.0350805170,0.0404182545
-0.0432359794,-0.0264994485,0.0126535168
0.0052923180,0.0293110742,0.0429618258
0.0149939427,0.0080150232,0.0046537047
-0.0088730889,-0.0188621029,0.0336387370
0.0343820167,-0.0244625077,0.0412264483
0.0166594817,-0.0183759541,-0.0157741480
-0.0394513761,0.0301056525,-0.0375885228
-0.0387824926,-0.0416772974,0.0073179602
-0.0436226423,0.0155951667,0.0365153655
0.0334500084,-0.0439882132,-0.0297603147
0.0080509745,-0.0098318718,0.0419400453
-0.0107314056,0.0378841566,-0.0306367274
0.0390357139,-0.0334604592,-0.0432702571
0.0161130834,-0.0093038358,-0.0105811588
-0.0001812388,-0.0408766171,0.0293230842
-0.0203504609,0.0327095328,-0.0264038217
0.0288628077,0.0219574669,0.0177955316
-0.0166690005,0.0351707331,-0.0267572902
0.0101370800,-0.0388304373,0.0363986532
0.0164110726,-0.0391364068,0.0204942552
-0.0024440406,0.0235910610,-0.0151657722
0.0208615012,-0.0173236647,-0.0076153580
-0.0049939289,0.0359672247,0.0132357818
-0.0196855598,-0.0176183687,-0.0109576307
0.0364178027,-0.0152982822,0.0034742686
-0.0326649253,-0.0193723615,0.0313935389
0.0411619907,-0.0060198476,0.0290786138
0.0250884285,-0.0395884163,0.0249682200
-0.0270012365,-0.0240042001,-0.0341725035
0.0102158869,-0.0401486072,-0.0209958417
-0.0308268201,0.0261289103,0.0352847353
0.0331224497,0.0191989509,-0.0290895855
-0.0327120803,-0.0164119623,0.0241826342
0.0279101835,0.0094930211,0.0082374249
0.0302473753,-0.0421393037,0.0205526052
0.0059727010,-0.0259777874,0.0297644006
-0.0277676304,-0.0000882388,0.0195729081
-0.0195640389,-0.0081480940,-0.0314661652
-0.0243547428,-0.0037237908,-0.0068014054
-0.0250868923,-0.0229813786,0.0090495265
-0.0209547202,0.0415823248,-0.0125317284
0.0086737039,0.0265554493,-0.0437196602
-0.0239956071,0.0218620026,0.0043166168
-0.0174552004,-0.0086265597,-0.0296991648
-0.0248636680,0.0164398796,0.0030818048
0.0003214046,0.0101586365,-0.0300842927
0.0430287471,-0.0093077147,0.0126143573
-0.0341427103,-0.0193782997,0.0199775429
-0.0247688351,0.0193065066,0.0108323078
-0.0213989702,-0.0003056888,-0.0111869418
-0.0169153211,-0.0388754055,-0.0122747110
-0.0026651173,0.0202651398,0.0359018849
-0.0242700363,0.0057237811,0.0330667514
-0.0330395102,-0.0394479375,-0.0004896187
-0.0089055829,-0.0346598140,0.0401059256
0.0107518121,0.0399239491,-0.0425235626
0.0146631818,0.0173832713,0.0371515277
0.0304377973,-0.0236977295,-0.0098459293
-0.0175476093,0.0292466259,0.0204409094
-0.0151428924,-0.0365392392,0.0072461153
-0.0136837172,0.0042457172,0.0283720649
-0.0058411150,0.0278336279,-0.0397392766
-0.0356667963,-0.0020718973,0.0026314429
0.0324865161,0.0260531962,0.0001947760
0.0032313878,0.0394890376,-0.0158472239
-0.0302002210,0.0391657611,0.0309215953
-0.0242314389,0.0357128287,-0.0197576352
0.0084467013,0.0120217518,-0.0061796552
-0.0051572297,0.0314086870,0.0305908583
-0.0144633536,-0.0176284393,-0.0034386594
0.0124301327,-0.0368136601,-0.0087523707
-0.0228846041,-0.0438411904,-0.0336215277
-0.0103091242,-0.0242889134,0.0420098190
0.0129072780,0.0276160312,0.0154230973
-0.0270266505,-0.0091971887,0.0140694440
0.0263160129,-0.0020627387,-0.0202162348
-0.0094500389,0.0070571433,-0.0077552837
0.0297597786,-0.0170597630,0.0083633005
0.0245181858,0.0106723587,0.0303752635
-0.0140421284,-0.0091637194,-0.0421299430
0.0011007766,0.0275875442,-0.0214159897
-0.0211868013,0.0300828028,0.0203178941
0.0386587641,-0.0048948249,0.0222301151
0.0039992292,0.0399015783,0.0234335554
-0.0107107958,0.0307198247,0.0317551626
0.0201749356,0.0224415309,0.0217298991
-0.0062381038,-0.0152307362,-0.0103278578
0.0144092911,-0.0071174102,-0.0328780975
0.0217651566,-0.0323839843,0.0178201460
0.0434721337,0.0180692526,-0.0124345824
-0.0379731887,0.0368763103,0.0010537582
0.0328445861,0.0337272519,0.0194490878
0.0207088703,-0.0193298420,0.0389120347
0.0091824192,0.0028644954,-0.0280747018
-0.0345138150,0.0190371864,-0.0078274951
-0.0348483819,-0.0355622904,-0.0134080251
0.0416078225,-0.0259330838,-0.0143965233
-0.0434602695,0.0045559033,0.0267575281
-0.0061380163,-0.0124389360,-0.0227543553
0.0239304874,0.0327193668,-0.0379017955
-0.0006560626,0.0220993699,0.0162725836
0.0197645617,0.0195784487,-0.0148311347
-0.0117410015,0.0401679311,-0.0077811431
0.0370819485,0.0100690625,-0.0329524200
0.0100635977,-0.0364111025,0.0395194448
-0.0351245041,0.0082329862,0.0440349575
0.0198961522,0.0215110746,0.0282883821
0.0019160722,0.0300673963,0.0265468499
-0.0114723498,-0.0407961771,-0.0329357861
0.0244636122,-0.0226623811,-0.0212483740
-0.0324980430,-0.0430093801,-0.0187449975
-0.0311022929,-0.0075495739,0.0399794368
0.0061758552,0.0296774660,0.0137254178
-0.0104897836,0.0329603746,0.0352417132
0.0171568745,0.0327998434,-0.0111559602
-0.0265377092,-0.0116755517,-0.0088655243
0.0198873999,-0.0372005422,0.0296586232
-0.0378006559,0.0198185028,0.0422829149
0.0066352475,-0.0274901551,-0.0211432939
-0.0341834293,0.0033635473,-0.0374031043
-0.0160449731,0.0049864287,0.0147528407
0.0216791909,0.0253917072,0.0194798377
0.0071918743,-0.0414283456,0.0371978829
0.0140358125,-0.0085991732,-0.0113563526
-0.0357751851,0.0323933378,-0.0373930326
-0.0235466503,-0.0339190983,0.0265572609
-0.0132711588,0.0438232615,-0.0025454022
-0.0006148571,0.0075341242,-0.0344761371
0.0335716272,-0.0328736255,0.0085378998
0.0421943320,0.0204246974,-0.0224537520
0.0380343513,0.0188118404,0.0054821413
0.0376910013,-0.0066283418,-0.0332230731
-0.0309974643,-0.0134616128,0.0248441899
0.0097457728,0.0135950361,0.0078925019
-0.0216297930,0.0093425795,0.0430280291
-0.0213747735,-0.0355728812,-0.0146301313
0.0077656493,-0.0323209070,0.0172999254
-0.0378175784,0.0005685600,0.0098460089
0.0188854728,0.0055856546,0.0096723930
0.0177375447,-0.0189830367,0.0340371084
0.0122949382,-0.0109311976,0.0387366898
-0.0210235731,0.0334210761,0.0000762058
0.0433547601,-0.0100848805,0.0322644691
0.0064197285,-0.0257960917,-0.0100684498
0.0432492653,-0.0153689747,-0.0356058782
-0.0388818395,-0.0320215709,0.0101065789
-0.0211324448,-0.0286191465,0.0073919927
-0.0367952232,0.0359515674,0.0152491532
-0.0336906717,-0.0233645739,0.0210358693
-0.0035352089,-0.0192856470,-0.0137976574
0.0337961153,0.0277874271,-0.0207425006
-0.0155652832,0.0237951331,-0.0324705466
-0.0228174938,0.0234213693,-0.0387462054
0.0378716176,0.0237857534,-0.0133383110
-0.0241435098,0.0109347736,0.0213654810
-0.0322173918,-0.0106868620,-0.0089670214
-0.0065950998,-0.0048540104,0.0010924592
-0.0238149380,-0.0352247219,0.0032517661
0.0284335566,-0.0330100002,0.0145841488
0.0149002208,0.0238224533,-0.0152421594
-0.0255421904,0.0146107056,0.0192999216
-0.0114540025,0.0024017999,-0.0264242673
