-1.0599469609,0.0405664139,0.2952553772,-1.5160889575,-0.9779577086,-1.5851458164,0.8758891403,-1.3569956714,-0.2024326082,-0.3923024684,0.5883208058,-0.6662616761,-0.6458575688,-0.1556611374,-0.1491322305,1.0092056884,-0.5464357403,0.4517223394,-0.7100596998,0.6823566239,-1.6574380332,-0.5185800926,0.0524477285,0.7605772634,0.6960601018,0.4761895143,0.5947895874,-1.5049812000,-0.5979135111,-0.5733376172,-0.8571860716,-0.3155802232,-0.8295969985,-0.6912062158,0.6173267362,0.2865222336,-1.0434394978,0.0396285645,1.0865843644,-0.8712149772,-1.1321251697,-0.5956858167,0.4189012935,0.1702357175,-1.1049114984,0.2194322771,-0.2890084349,-0.8082957343,0.7801246315,-0.1928024772,-0.5806171641,0.3448774535,0.7036826539,-0.3370839744,0.7545534990,-0.5417062740,-1.1511705813,0.0847293128,0.1334087936,0.4550343833,0.1395050530,0.5048517259,-1.0448958420,1.2381738894
-0.5915533415,-0.7982554289,0.7458593708,-0.1668755517,-0.6845839208,0.6885746616,-1.1716949286,0.1547849864,-0.2927656686,-0.2616239283,0.8501145250,0.6233938326,-1.3020935725,0.7878256627,-0.0469806176,1.9718521814,-0.9938909309,1.0481397242,0.4283081502,0.2585329414,1.1287830486,0.1640787617,0.9477301982,1.2630404791,0.9673382986,-0.0977366449,0.6658358496,-0.1800396109,0.4113023215,0.2041619745,0.1543874811,0.2751412070,1.1294749432,-1.2883850069,-1.2199207985,-0.0172810497,-0.7687391694,0.1266379535,-0.7149715790,0.5386160844,-0.2055127517,0.7289394287,-0.6402742967,0.6449816302,-0.3811567525,-0.2010449861,0.8234619183,-0.6623737429,-0.0821189948,0.6600372748,0.1322911002,1.4825768873,0.4121573149,0.6432708890,-0.6034169169,0.9696734235,0.3373747266,-0.0128608227,-0.7902765123,-1.2263284112,0.4077941325,-0.7755852590,0.8311303663,0.8882561211
-1.1036143507,-1.1363048094,0.1741298599,-1.3705586582,-0.4002986718,0.3108904024,-1.3414649198,-1.3042265509,0.7046483706,-0.8171257407,-0.2211136953,-1.2513122514,-0.7753941658,-1.3233832920,-1.3561778222,-0.0302941313,-1.5083067390,0.1950461513,-1.4036075444,-1.1233425023,-0.2383639575,0.4814786662,-0.5117401955,-0.2662688129,-0.5249269487,0.4930329160,-0.3799476223,0.0836145212,0.3353673054,0.6469481861,-1.3780303602,-1.4333246941
1.2708817652,1.4130148731,-1.2301633860,-1.0758581514,0.3563855127,-1.2440961474,1.2082684287,1.2557813547,-1.3594316673,0.1838929123,-1.3512405241,0.8031115160,1.2780661229,0.0123472578,1.3546304312,1.2356560401,-0.5164744660,1.3523809466,1.3770431784,-1.4319026508,-1.1992218179,-1.3436285000,-1.5932720353,-1.1682887147,-1.3208400917,1.3593325417,-1.4828525463,1.0260897452,-1.1876781235,1.2457273558,1.0558899717,0.7228736387
-1.3266637487,0.5160698696,0.7996766828,-1.2337098103,0.8292381926,-0.2875811978,-1.4289762307,0.3823305859,1.1617470047,0.1571959318,-0.2453134831,0.1869595337,-1.3434007168,-1.4213847669,-1.2508583204,-0.7304133899,0.3066953497,-1.3700179879,-1.2697964421,1.1890733603,1.1164903861,0.2889596941,-1.2119690997,0.8167364370,0.6613498218,0.0531187910,0.7794489404,-0.2761983949,1.3879214147,-0.1685075068,-1.2442066222,-1.3035986007
0.3015222614,0.6361376406,-0.8706030343,-1.3243314919,-0.6305074972,-1.0224075185,0.8581560413,0.3345683119,-0.6558637024,-0.4056404687,-1.4337424862,-1.2967190790,1.0013644770,-1.2028110994,1.0779757670,0.5732052995,-1.3843310147,-0.0722460132,1.2425113368,-1.3833088345,-1.3472057673,0.0571609481,0.7316660278,-1.1611476939,-1.0121797520,0.9068486524,-0.9996283063,0.4382010093,-1.3769961022,1.0731800069,-1.0119608839,-1.4172731062
1.2803175291,1.1733389361,-1.3890243003,0.7253636717,-1.3522721545,-1.3558863322,1.2360360726,0.9648908614,-0.9863126535,0.3543641902,-1.3929909236,-0.8685108416,1.3862187306,-1.4043650288,1.3129588430,1.1753379286,-1.5034519166,1.2842428725,1.5468492897,-1.2553417434,-1.3068095840,-0.9829099902,1.5444417124,-1.3127910899,-1.3787503348,1.1176099482,-1.4051031031,1.2057443312,-1.4199724883,1.2280572079,-1.0732312869,-1.2540772545
-1.3156798707,-1.4047284014,-0.0837082406,-1.3022695796,-0.1711960221,1.2696310572,-1.1696021894,-1.2626062502,1.3046228947,-0.6055468878,0.4022187526,-1.3870941978,-1.3231646681,-1.2333209444,-1.1995082085,0.1050432835,-1.4659313943,-1.2661922573,-1.2132999886,0.3523659821,1.1544961380,1.2094089091,-1.3716329119,0.6626667708,0.3374083731,-0.9262786860,-0.3964320349,0.4562868344,1.3544736676,-0.8150889335,-1.2381529834,-1.3738693556
-1.3822727381,0.1871318167,0.8288986818,-1.3359462870,1.1920805625,-0.2789291790,-1.3234366780,0.9955748824,0.7614400191,0.1960179960,-0.0524675210,0.4610894825,-1.2305162599,-1.4055490350,-1.1926453044,-0.8158499529,0.3800259453,-1.3298645020,-1.3808828612,0.9383708493,1.0595432402,-0.3750500555,-1.3081530466,-0.1431681453,0.9393006671,0.5328071122,0.7066837583,-0.5162814482,-0.5734594556,-0.3932884993,-1.2669421281,-1.2518722398
-1.1954737020,-1.3457146273,1.0297506733,-1.2748800524,0.9411595632,0.6102769562,-1.3444723229,-1.3160141958,1.3317208886,0.0893620671,0.7546480547,-1.2962158168,-1.4149620700,-1.2531553095,-1.3718982503,-1.5318579438,0.8688583501,-1.3192989163,-1.2773238260,1.1636446223,1.2006396001,0.8408334195,-1.2474172609,0.2861823033,1.1026629919,0.6632507913,0.8343048639,-0.6050447618,1.2416362376,-1.4877001844,-1.3350349851,-1.3003069334
-0.0840996929,0.9729730341,-1.3069621696,1.0723745487,1.2048795460,-1.2349714549,1.3795465791,1.1700534051,-1.2523573137,0.2783715794,-1.1653712628,0.1266199800,1.3380799080,-0.1608172643,1.5202493613,1.0919424064,0.1558814684,1.1450601654,1.3070646682,-1.2081996045,-1.2259297048,-1.2161181082,-0.1185895420,-1.2230885653,-0.5737718768,1.0262428834,-1.4492361533,0.2894061562,-1.3740194437,0.9289084537,1.0277452478,1.3645579171
-1.4208676845,-1.1229473931,0.1654739850,-1.2803722927,-0.3608501073,0.5165740363,-1.3015986377,-1.4342974957,0.5864471213,-0.6646218742,-0.4861990177,-1.3464885750,-1.1771583518,-1.2805081023,-1.3328479643,-0.0606039346,-1.5804845886,-1.2922242666,-1.3040395219,-1.0283623600,0.1941653778,0.5066726757,-0.2905092616,0.0059474626,-0.2787675090,0.0011902117,-0.4245558231,-0.0995499273,0.3605638422,-0.2337206355,-1.3357538100,-1.4040326489
-1.3251934756,-1.2845635808,-0.2082731670,-1.3682948786,-0.4434069057,1.3322646385,-1.4052838500,-1.2858700019,1.4311175551,-1.4137839390,0.8643464594,-1.2982156915,-1.3086020550,-1.2443132750,-1.1894834705,0.1932008120,-1.3265715832,-1.3552863304,-1.3040800303,-1.1792419649,1.1548387508,1.3924266667,-0.8996176284,1.2997591061,-1.0429091606,-1.0028635757,-0.6015868906,0.6595278446,1.4764673034,-1.3742504877,-1.2563814060,-1.2421752135
-1.2198998918,1.1481996953,1.1415174701,-1.3569435547,1.1331233321,-1.3263100237,-1.2550592992,1.3777951577,1.4447083669,0.8963553619,1.1001687905,0.1077833003,-1.1853440137,-0.4963889075,-1.1492162807,0.9521833553,0.8267297299,-1.2815962322,-1.3991721326,1.0704238298,1.2372636530,-1.2012976397,-1.2502149675,-1.2641676750,1.2738757721,1.1804049452,1.0572120045,-0.5868088989,-1.2642849874,0.5588412686,-0.8526528685,-1.2708358825
-1.3974342484,0.9099533901,0.5829700035,-1.3471681154,1.1264461979,-1.2124564440,-1.2359757875,1.0891540634,1.3682139011,0.4132273145,-0.1358551069,0.2859301629,-1.1283540960,-0.4802957138,-0.2977511993,0.5477943820,0.2849634801,-1.2611712666,-1.2666230818,0.6840210256,1.2363631356,-1.2357204292,-1.3006361055,-1.0179005255,1.2198822228,0.8384368388,0.6123950634,-0.4779807994,-1.2007353265,0.2703241157,-0.4113354775,-1.3559710825
-1.1947418942,-1.2401365626,0.9215166341,-1.3176654719,0.6584571609,1.4416871594,-1.3861991074,-1.3659467950,1.3254608762,0.2885021003,0.6161575477,-1.4404763584,-1.3822114134,-1.3697269412,-1.2841790991,-1.1322197057,0.9906550908,-1.3241353666,-1.2412801696,0.9306306243,1.3391542765,0.9570102304,-1.2208845043,1.2171556257,0.9337866915,0.1005588535,0.5295601123,0.2474901858,1.5412433829,-1.3977555771,-1.2161729410,-1.2095121723
0.5425477947,0.6682946316,-1.3215479831,-1.3604785480,-0.0732103161,-1.3477662701,1.0777171780,0.5774127830,-1.3482457346,0.3374650171,-1.4530738863,-0.3390100761,0.9335593215,-1.3080172773,0.8806102998,0.6769577609,-1.4639223964,0.6037343729,1.1467597755,-1.1997561518,-1.2409111734,-1.3253874729,0.8771979676,-1.1298535348,-1.4351324475,0.6622547488,-1.2021696493,0.0040512725,-1.3124719646,1.0078723230,0.2452416665,-1.4061144404
-1.3269128606,-1.1685281793,-0.9114447102,-1.3418385620,-0.4231360998,1.4174411621,-1.3549913294,-1.2723763099,1.2127153301,-2.1900715033,0.8035795281,-1.3168357848,-1.2949703933,-1.2788860328,-1.3156530952,1.1511026522,-1.3289935539,-1.2402270218,-1.2790839097,-1.4744159090,1.2245823747,1.4993600528,-0.8255965742,1.5067666688,-0.6109650557,-1.0157549892,-0.6634992356,1.0092300306,1.3024198560,-0.9729338230,-1.3744740821,-1.2202575463
1.0724389853,0.6211517126,-1.4921752289,-1.2479614903,-0.6631474952,-0.9177092039,1.3257007532,-0.7810277788,-0.1482252859,-0.3015151357,-1.5545600397,-1.2348240002,1.3401140100,-1.4259339575,1.1848638427,0.9853059626,-1.2586591873,0.4380289817,1.4295579965,-1.4158332381,-1.3563765029,0.7547099324,1.2163145933,-1.2627418546,-1.0588991549,0.6947073356,-0.7564357537,0.9566239051,-1.1208097450,1.1944833232,-1.3595439828,-1.3164862397
-1.2227101374,-1.2062388907,0.4260384161,-1.3802464644,-0.1022459574,1.4991577935,-1.3901545347,-1.3987441834,1.3234664901,-1.3803838716,0.9717850091,-1.3845168301,-1.2712244929,-1.4081154539,-1.2184799551,0.5061904665,-1.2360653792,-1.2600878432,-1.2264187065,-0.6925474265,1.2373210038,1.3305045204,-1.2101276461,1.2106187291,0.6983870347,-0.9915079183,-0.4322116617,0.6740868924,1.3658276816,-1.3550105681,-1.3358407046,-1.3588953557
0.4246837511,-0.1940389452,-1.4540304503,-1.3626903143,-0.6490640180,0.4618515230,0.6257588737,-0.7814722707,0.4473318614,-0.2773666820,-0.9232359365,-1.2781187650,0.4964735440,-1.3287391729,-0.6594080551,0.2360276679,-1.2911535753,0.0199999912,-0.6657880468,-1.3977886365,-1.3811749014,0.6138301751,0.8951840321,-0.9076400910,-1.3138549110,0.4848072263,-0.6141980890,0.0731538272,-0.8253326326,0.7608088749,-1.3606472724,-1.3709844329
-1.3775429506,0.7531478635,-1.2441897385,-0.4759272338,-0.0910601820,-1.1102115068,0.6666996250,0.9588104624,-1.1388213295,0.3864995850,-1.1568840483,0.1290400042,0.5626415337,-0.2413726349,1.0295814339,0.7563270156,-0.4162189152,1.0491359527,-0.1394300410,-1.1641353056,-1.2828838589,-1.3294383963,-0.1675867569,-1.2457340251,-1.1974182457,0.8636416636,-1.4549570176,0.0789126299,-1.2537658129,0.4750052295,-0.0380402452,-1.3778829764
-1.2113056708,0.6336528739,1.3511566463,-1.4010749187,1.1891579599,-1.5625897526,-1.2717214336,1.2954850100,1.2293541593,-0.1369093738,1.3102447871,1.3177190653,-1.3189113298,-1.3272820336,-1.4677238029,-0.8769727273,1.3834463875,-1.2121489759,-1.2912667397,1.4335303973,1.3639343212,2.2925826253,-1.3114982997,0.9652550284,1.4257736579,1.9848558744,1.2318086560,0.8838702649,-1.2403140404,0.5815459279,-1.2645341354,-1.3589827471
-1.1948598898,1.1471725397,0.9569401781,-1.4097529861,1.0510039933,-1.4352309803,-1.1960296985,1.0872745886,1.5123881709,0.9605521142,1.1817255579,-0.0478645987,-1.3816980049,-1.0701680892,-1.2704130361,-0.9077247171,0.8900146918,-1.2227715996,-1.2828243802,1.2541963602,1.4575739200,-1.3485688986,-1.3172668712,-1.4250711114,1.1220547169,0.8123285628,1.0732906783,-0.6808295263,-1.2408609558,-0.0653831856,-1.2936778936,-1.4347826846
-1.0812936286,0.3004438614,-1.6282544955,1.0461659054,0.4861799750,-1.1841378762,-1.4138252116,0.7461128089,-0.7970453268,0.3224192788,-1.0339883789,-0.2837665194,0.4126330088,-0.2088954315,0.7463992211,0.4898035880,-0.0605608460,0.4028479508,-0.0688637514,-1.3296172912,-1.1592583636,-1.4960138149,0.0135793294,-1.1759120064,-0.6281400646,0.4854276125,-1.5218097248,0.0991255737,-1.3393628358,0.3311750851,0.1614135095,1.2562229509
-0.0942652392,-1.2482465396,-1.5056399989,-1.4184206972,-0.4500980431,1.4952905085,-1.2954048717,-1.2301991409,1.1820733571,-1.9422957091,0.2897906034,-1.2334811927,-1.3897767093,-1.3454730502,-1.5759919978,0.9430158777,-1.2971017750,0.4210609264,-1.2318239292,1.0776115584,-1.3322243781,1.3463172815,1.0932058433,1.4798140030,-1.2963674481,-0.3580238688,-0.6904629228,1.0467509973,0.3575534931,1.5409528297,-1.3514666851,-1.2313856004
0.2182999220,0.4365682888,-1.3686696659,1.0168133463,-0.2742309886,-1.1406594091,0.5158555156,0.5715725210,-1.3026083832,0.2645100996,-1.3512476461,-0.1317721529,0.6650109247,-0.0650584095,0.8507943774,0.4361975810,-0.4104689585,0.7506184409,0.2365389099,-1.2123422218,-1.3244414671,-1.4481698331,0.2955993823,-1.1999666848,-1.3850266070,0.4630908777,-1.4131805007,0.3643160649,-1.3638258693,0.3489804322,-0.0786158489,0.7374755256
-1.1679176419,-1.1422021363,-0.1233026507,-1.2758154984,-0.3202274016,1.1543631537,-1.2570830100,-1.4348988171,0.9902062385,-0.7430295067,0.1911467635,-1.3462377902,-1.3165219460,-1.1881774024,-1.3864923547,0.0036686685,-1.4893334584,-1.3809542525,-1.2052071393,-0.9545943970,0.8340718058,0.9418519411,-0.9712175128,0.6929833117,-0.2689907127,-1.1908773266,-0.6054632048,0.2395015150,1.1997549754,-0.3878481416,-1.2153933810,-1.3581233150
-1.3333079939,0.6145707822,-0.6080641062,-1.8913301082,0.5914541486,-1.1012630531,-1.2450560778,0.9664990096,-0.6605961798,0.0169487324,-1.3504194051,-0.2722148963,0.4132968575,-0.4369073108,0.8542296985,0.7425004831,-0.3464540864,0.6941279171,-0.6944387433,-1.1434383299,-0.8740125668,-1.4446716157,0.0588488059,-1.2244566438,-0.0621730394,0.5763909770,-1.1669254716,0.2396969397,-1.4055361246,0.1766928819,0.0746648653,-1.4012824120
0.3247636172,0.9161810361,-1.2580629586,1.0730293327,-0.9938590571,-1.3526802214,0.8856411233,0.8995427068,-1.1934697177,0.2250091713,-1.4591683849,0.2651413340,1.0977852777,-1.2183401346,1.2425550257,0.9221488016,-1.3026280141,1.1075311266,1.1831679021,-1.3865375344,-1.4264292161,-1.2384490450,-0.6340348258,-1.1897542448,-1.3795077714,1.0280022292,-1.4927231484,0.5488490642,-1.3713226343,0.9091917363,1.1488374479,1.0734537414
-0.0609429451,0.4847739444,-1.2603001403,1.6682661610,-0.7496314607,-1.0582613765,0.4652779964,0.0364876483,-1.4881198780,0.0693169118,-1.3871870973,-0.3368265011,0.6275088453,-0.9900497006,0.8260955305,0.4829825106,-0.8201492719,0.5954840948,0.8821810023,-1.4152829052,-1.5001524218,-1.3016924245,0.2354457812,-1.1085062385,-1.7283439792,0.3263555337,-1.2330187217,0.2953575815,-1.2574528412,0.5724298026,0.1960922315,0.7256440011
0.0929774662,-0.0981547469,-1.4943033693,-1.3183483883,-0.4747460421,-0.4948495752,0.2377795569,-0.2328331447,-0.6016041770,0.1957448190,-1.3760190474,-0.7883754399,0.4829094761,-1.2937578989,0.4253324840,0.1286263650,-0.9911089687,-0.0523608361,0.7155963397,-1.3448256949,-1.3780960134,0.0862180535,0.1069495403,-1.1689667813,-1.2354303593,0.0948661961,-0.8337716061,0.0287321689,-0.7606427409,0.1350817823,-0.2125810782,-1.3623836882
0.3668004994,0.5207509500,-1.0622204481,-1.4143520278,-0.5510727024,-1.0324382811,0.3401593246,0.6024976683,-1.1565817908,-0.0137208393,-1.5079373305,-0.6796634229,0.9819433502,-1.4036037651,0.9193086541,0.4488375860,-1.3879859056,0.3688502542,1.2379191729,-1.4198791075,-1.3606994692,-0.5770692670,0.8695428604,-1.3493834939,-1.2951903662,0.7495481599,-0.6916557836,0.3449812780,-1.1457500870,0.9792575437,-0.4343471731,-1.4044169727
0.1911681684,-0.7327345971,-1.4271860887,-1.3088157896,-0.6081922830,0.5989863199,0.6202989990,-1.3861668641,1.0902447484,-0.2586727944,-0.7824804723,-1.3724665427,-0.0820815797,-1.3765196561,-1.1510231900,0.0085304991,-1.3611794440,-0.0300071873,-1.3508560529,-1.5660244933,-1.3590850844,0.9388328926,0.9233684579,0.1811545639,-1.1367810575,-0.1241441390,-0.6015937486,0.1499469675,-0.0448040455,0.4006531067,-1.2444516646,-1.2080419236
-1.3074972127,-1.2208896864,-0.2966768216,-1.3068173814,-0.5464855814,1.3098559390,-1.3486076983,-1.2976524115,1.3659267549,-1.5205155593,0.5298604280,-1.1912720420,-1.5010695296,-1.4316045859,-1.3777541540,0.2341009569,-1.3233875093,-1.3249937832,-1.2027009795,-0.7546833907,0.9816014139,1.1130257179,-0.5972255709,0.5973007523,-0.7839045306,-0.0784657835,-0.5777045692,0.3513079016,0.9357319755,0.7456327999,-1.3628181158,-1.2204247768
-1.4071828921,0.7182611695,0.9284018978,1.2070931632,1.0783355609,-0.8569836279,-1.2819167596,0.8310685083,1.0207560118,0.4675390161,-0.2404924499,0.3545646790,-1.1287835692,-1.3543950940,-1.2014031509,0.0290863313,0.3875453514,-1.1836175819,-1.3848859328,0.6150663347,1.1574465648,-0.8001840953,-1.2714826808,-0.3564469165,1.1006096050,0.5913970797,0.7534331877,-0.4982116398,-1.0363330168,-0.1104031800,-1.0629770359,-1.3362259924
-1.2490961800,0.5568269755,0.5491904634,-1.4142675678,0.6700948395,-0.5143789697,-1.4378821113,0.4528201325,0.7454324158,0.6322561441,-0.1891341567,-0.3827021877,-1.3386115109,-1.2954262412,-1.0789677088,-0.2270332870,-0.2005427741,-1.3805840783,-1.3344899056,0.6650836297,1.1251753208,-0.6252043620,-1.3740911160,0.0168396505,0.4807319734,0.1796272348,0.6519076394,-0.3131620420,-0.5676740415,-0.2856747085,-0.6327901080,-1.3903923096
-1.3916264792,0.3970538585,0.9259037307,-1.1903072108,0.9263499878,-1.0411240061,-1.2657426199,0.8912135087,1.2255614245,0.7473680682,0.2230140827,-0.0538633521,-0.9291341285,-0.2230246123,-0.7332826755,-0.1644874677,0.1829667011,-1.1952863777,-1.3365915199,1.2757393640,1.2710397404,-1.1228425745,-1.3085819253,-0.3430467018,0.6435474175,0.4142881117,0.7878971954,-0.3092597156,-1.0842712953,-0.1416874315,-0.2074426518,-1.2051215445
-1.2188650312,1.3169563361,-1.3360844478,-1.2849153337,1.1998063074,-1.2423637239,-1.3351605617,1.1982801552,1.4900152494,-0.5749881042,-1.2567880415,1.3741577413,1.4176603236,1.0777759870,1.3859029307,1.3795475979,-1.3899798883,1.3797119619,-1.3616732746,-1.3800458494,-1.3275638065,-1.2818943000,-0.6293528989,-1.2602510302,1.3229717536,1.2557293084,-1.3542767725,0.0611266599,-1.2630625592,1.3931443549,1.3526719085,-1.3627252965
-1.3948103252,0.5614357530,-0.3489298230,-1.3534577013,0.7600498702,-1.1339015593,-1.4304973174,1.0632391584,-0.3712988186,0.2259826761,-0.9342908261,-0.2183385780,0.5230021078,-0.4716614086,0.9249821183,0.5620862240,-0.1698427689,0.3067553061,-1.3294304031,-1.1736123507,-0.0957736592,-1.4833492942,-0.4622268170,-1.1407197859,0.5445490814,0.5680626697,-1.0398227144,-0.2430887007,-1.2936135230,0.3254806806,0.0858794984,-1.3900187334
-1.4255318094,-0.4304281973,0.6228425304,-1.2464561240,0.6020395022,0.2827003378,-1.4198776236,-0.3215241783,0.5466281436,0.0827403546,0.0101491998,-0.2546480869,-1.2040945508,-1.4114806584,-1.2781845108,-0.4998308625,0.0423527832,-1.3716281521,-1.3207404396,0.5423134021,1.0286726415,-0.0222818497,-1.3239559447,0.2712434422,0.2028941833,0.2247051515,0.6023190712,-0.7514470300,0.6501674937,-0.3314995420,-1.2837333843,-1.2391045440
-0.4942123422,-0.6658536003,-0.8026332466,-1.2626013197,-0.5190326679,0.3782898788,-1.2187700229,-1.3380786744,0.5354586458,-0.1633504934,-0.4886415622,-1.3793414906,-0.1618572275,-1.2252453579,-0.4924686912,-0.3238587269,-1.2251436186,-0.4415860244,-1.4246936892,-0.7163682772,-0.0833092037,0.2640895170,0.5438679713,-0.2333636528,-0.3280935741,-0.0294068361,-0.5104379795,-0.0225316641,0.0224278610,0.0640032772,-1.0584201542,-1.3889721680
-0.9267450515,-0.9385246728,0.5033111442,-1.4135626109,-0.4466125669,0.3848789764,-0.9855584305,-1.4571420566,0.3370134818,-0.6590979827,-0.6908197567,-1.2994730661,-0.5114562020,-1.4334346515,-1.0816691974,-0.2473946564,-1.3503233079,-0.6884470580,-1.4048373096,-0.7231231373,-0.5527803581,0.3089296234,0.8580448639,0.2104396223,-0.7086215300,0.0501784975,-0.4864805498,-0.2048613692,0.2420580809,-0.3333414520,-1.1165475860,-1.1959392313
-1.3968695125,-1.2354948202,0.3832154843,-1.3468957346,0.0752363170,1.4831489878,-1.2908356369,-1.4167604716,1.1706327733,0.1762338210,0.5463586488,-1.3021919713,-1.2941989035,-1.3026611796,-1.3611712989,-0.7546050472,-0.2430754679,-1.1867585740,-1.3502528280,-0.3293598538,1.0396248058,1.0992984425,-1.1795593284,1.1091504383,0.5180455769,-0.3810731074,-0.3351728685,0.1923857805,1.5733319119,-1.2748987585,-1.2936153022,-1.3541525327
1.4326639561,1.5070523404,-1.2298568154,-1.2400488320,-0.7642738727,-1.2336757545,1.2458660864,1.3916908687,-1.4772663172,-1.2017009905,-1.3684168612,-0.9787043275,1.3706462662,-1.2673684897,1.3585899763,1.4047906567,-1.2660420432,1.4782866729,1.4413959094,-1.2956554147,-1.2840476563,-1.0765069720,1.4583556016,-1.1824039936,-1.2777081858,1.3380891585,-1.2004369718,1.4718280601,-1.1961795575,1.4340803999,-1.3636405013,-1.4163850446
-1.3548198757,0.1622017518,0.8973115860,-1.3103716200,0.7553694954,-0.4915308373,-1.3454376951,0.3321596515,1.3011762126,0.2515125085,0.4798782596,-0.3044232622,-1.0120067777,-1.2142628207,-1.3309330236,-0.3478598405,0.1597477786,-1.2598826239,-1.2293024209,1.2814580636,1.2744101075,-0.4175430250,-1.2704907049,0.6339484639,0.6324867876,0.0555769058,0.7220149587,-0.0726178293,0.4217574627,-0.3051100136,-0.8610777711,-1.3507778282
-1.2120686605,-0.9722017538,0.1147129061,-1.3725433658,-0.2934896792,0.3590842492,0.0032774337,-1.4751007953,0.4538352398,-0.4693274244,-0.4094150734,-1.3775277170,-0.7416590334,-1.3157632289,-1.2181711403,-0.4159451601,-1.3886926765,-1.1085695939,-1.3036349275,-0.6042615712,-0.0283512428,0.3519985040,0.6771749480,0.1081344987,-0.2409303266,-0.0630381528,-0.5324335813,-0.2404163223,0.3815867937,-0.4310597068,-1.3642649542,-1.2676162423
1.1039633223,0.7221194788,-1.4484177382,-1.2943790691,-0.8044295540,-0.6942312119,1.0649081751,-0.7581161937,-1.3540825753,-0.0491156924,-1.5123632880,-1.2064624575,1.2052177866,-1.3277347124,0.8414227686,0.7217156425,-1.3439774510,0.0798757950,1.4240078587,-1.2778310520,-1.2608040550,0.8232732765,1.2013824529,-0.9666968692,-1.2548191543,0.7821416210,-0.8314010767,0.7665737897,-1.3693134129,1.1182697193,-1.1990085856,-1.3076537360
-1.2303440965,-1.3387255976,1.1496153552,-1.2473762182,0.8445025859,0.9832671338,-1.4180155609,-0.8627811651,1.2756565911,-0.0308970512,0.3756294077,-1.1927563918,-1.2738031796,-1.2418221737,-1.4384108110,-1.3683741387,0.8803830322,-1.3193970890,-1.2506802604,0.8844320531,1.1666007858,0.7609744208,-1.2184623364,0.8593254154,0.9910528383,0.3928282455,0.8104572590,0.0457941903,1.5523525609,-1.3192040131,-1.1906653327,-1.2159813591
0.1803909095,-1.2018035948,0.0260620360,-1.2019590367,-0.5428187191,0.3572662617,-1.4928202898,-1.3815532317,0.8738441526,-0.6821081578,-0.6684218703,-1.3029012740,-1.0794207424,-1.2709398891,-1.2461950239,-0.1160530805,-1.3316581046,-0.4326620151,-1.3325349723,-1.0643416451,-0.0674704625,0.6209315546,0.2313075231,0.0246360841,-0.4447213601,-0.5184524664,-0.3476105081,-0.0408073782,0.2877658165,0.1794197636,-1.3413791477,-1.3847893200
-1.2192123166,-0.7271706889,0.2194351463,-1.2440870054,0.3344693877,0.5720205490,-1.2307765471,-0.6331183633,0.4739562314,-0.1481505119,-0.1242350792,-0.3960281491,-1.2294739939,-1.2484768735,-1.3302509928,-0.1610892135,-0.2485724096,-1.3800131021,-1.4360053684,0.1649163886,0.6497283975,-0.1135560345,-1.2982904348,0.2916873123,0.2905696860,0.0568107362,0.0631587483,-0.4199742306,0.5866070532,-0.3570804909,-1.2019844092,-1.2143825488
-1.1585789037,-0.9700979521,-0.3289193706,-1.3840222977,-0.3333234010,0.5910703296,-1.2569130424,-1.3349385563,0.7404783664,-0.9910927078,-0.3389300550,-1.4776862260,-0.4499683162,-1.4168368342,-1.2535127629,-0.0969742075,-1.4072242829,-0.9566522130,-1.4156565650,-1.0361708062,0.4258772282,0.4175752283,-0.4217506637,0.1285573467,-0.1471796178,-0.4440309622,-0.4440639331,0.0469559623,0.7366305942,-0.3491844961,-1.4101293018,-1.2167185110
-1.4270476640,-1.3441681920,-0.2373662382,-1.2436733371,-0.2717511282,0.6770362303,-1.3553135276,-1.3919657324,0.9964544499,-0.8958285104,-0.0143867344,-1.2131819325,-1.1199344761,-1.4125242900,-1.2132366250,-0.1129677141,-1.5195972381,-1.4163349416,-1.2124489680,-1.0157214613,0.9641093389,0.5940630610,-1.0012383418,0.1607472192,0.1656942013,-0.4605065250,-0.5437822957,-0.1028484123,0.6433346110,-0.7056434776,-1.1912706595,-1.2440460568
1.3187081631,-1.1789804829,-1.4871766958,-1.0854138479,-0.4664561176,1.3275799878,-1.1862794204,-1.1708981446,1.4610300700,-2.0857006124,-0.0272120150,-1.3715817332,-1.3280530356,-1.3279923520,-1.4279273723,0.6452457957,-1.2707033806,-1.1812633442,-1.2041716443,-1.2952254362,0.7189439583,1.3632337451,1.2936164071,1.3897291344,-1.4113925095,-1.1444793089,-0.5966680348,0.8903224088,1.5821230434,-0.0780680592,-1.2174022709,-1.3688832723
-1.4284780090,0.6357816893,-0.2598085066,-1.4249927467,0.8095480517,-1.2383971767,-1.2463961496,1.0329165422,0.0585959189,0.3263989871,-0.5464560584,-0.5427029191,0.0998434266,-0.2374447792,1.1371119889,0.5372541859,-0.3958631329,-0.1754643098,-1.3187251708,0.0674344694,0.4421177990,-1.2694776801,-0.8290960545,-1.2225343668,0.4007657474,0.5336312272,-1.1292343569,-0.1968234625,-1.2601370470,-0.0847048098,0.2708878100,-1.4323152800
0.3827426247,0.8431896317,-1.3003326036,1.4316879362,-0.4740410326,-1.2216805317,0.7641571971,0.7512846195,-1.6002571023,0.1796630978,-1.2817914235,-0.1235193156,0.7142759712,-0.1727281731,0.9269466164,0.7622645292,-0.4849206642,0.8025335914,0.5429682081,-1.2891662065,-1.4142400370,-1.3505435722,0.0863958037,-1.2884838978,-1.2236331318,0.6915513716,-1.5172177110,0.5387029255,-1.2110110746,0.8029225422,0.2254631048,-1.0725413300
-1.4004142385,-1.1688867749,0.1803023646,-1.3203550107,-0.1472152925,0.6239464079,-1.2677807523,-1.2939372177,1.0541027258,-0.3000370739,0.0312003227,-1.2030928609,-1.4162727053,-1.3447113961,-1.3076471035,-0.1096796653,-1.3720101360,-1.3192356814,-1.2051411275,-0.3426468579,1.0906161444,0.5184633973,-1.2833661839,0.3241890965,0.2563571555,-1.0030576584,-0.5100467619,-0.2502816207,0.6871278022,-1.2281757017,-1.2563281198,-1.3426363698
-1.1916651762,1.1780279825,0.7561678486,-1.3224443722,1.1511269558,-1.4214622879,-1.2603523157,1.1298600371,1.2916145724,0.8331953415,0.7410696584,0.2133944653,-1.2470826635,-0.2091889325,-1.0040282174,0.8001231338,0.6058508054,-1.2402169172,-1.2700095870,0.8517183016,1.0887776606,-1.3962728878,-1.4024682834,-1.3634438890,1.0433548739,1.1270085811,0.6335600001,-0.3722090114,-1.1897155033,0.3778184773,-0.9518795601,-1.2767235473
0.5970037840,0.7286988679,-1.1234619063,1.7070107278,-0.0577831582,-1.4013359514,0.5060319255,0.7223638859,-0.9378053784,0.0391918184,-1.3556002324,-0.2829840850,1.0317417863,-1.4138744589,1.2233482099,0.6110977694,-1.3228396335,0.2132131846,0.9689023244,-1.2232652053,-1.4199846927,-1.0847139878,0.5623138986,-1.3987744102,-1.3477409393,0.7195005141,-1.4325724751,0.3453653742,-1.2687153130,0.5546627868,0.2952783801,-1.4157329557
-1.4640588152,0.4729146074,0.4929779321,-1.3748006604,0.5261923522,-0.9251492606,-1.3607779417,0.7105648660,0.5075713309,0.2927303219,-0.6330180539,-0.1899238985,-0.0943037254,-0.2117202482,0.6336782697,0.1445395625,-0.1142447765,-0.8467387984,-1.4727340611,0.8912109508,0.7677875419,-1.5018702575,-0.9869383389,-0.2749971752,0.4357588357,0.4092648211,-0.3817701121,-0.3083003163,-1.2293445538,0.0425774545,-0.0035980943,-1.2350035935
-1.2339794599,-0.9948813844,0.2156607534,-1.3913239957,-0.2297366739,0.3345997111,-1.2552030687,-1.4268300260,1.0094484459,-0.1906589089,-0.0917646543,-1.3264994241,-1.2305608519,-1.1974794813,-1.2934517995,-0.0819897275,-1.7116033611,-1.2934318397,-1.3719597159,-0.4530040022,0.8752312115,0.7589804292,-1.1703977863,0.2763878534,-0.5152800866,-0.5770938809,-0.5063961619,0.0600657102,0.7502017463,-1.2148465668,-1.4274556417,-1.3183891753
-1.4258797675,-0.1919032717,0.4910791444,-1.3247422937,0.4878920832,-0.0604751457,-1.2382923253,0.3936905464,0.2296596121,-0.0885212612,-0.3127915880,0.9691792116,-1.8159982066,-1.3978652294,-1.4416376784,-0.1319606318,-0.1218724732,-1.2395722385,-1.4106441463,0.1522345264,0.5462917867,-0.2331990752,-1.1129679983,-0.0390643641,-0.0000331618,0.1174996728,0.1845440486,-0.7083416497,0.3317490374,-0.1000667204,-0.9561649167,-1.3440321256
-1.3294707757,1.2987454819,0.9950383347,-1.3968225345,1.1050141455,-1.0128047771,-1.2864310564,1.0174244186,1.3765106620,0.5729786782,0.3269704538,-0.3822050372,-1.2126349210,-1.3605392951,-1.3840568391,-1.0382770744,0.9537283840,-1.2965484214,-1.2408368279,1.2908051659,1.1960074988,-0.8171645947,-1.4278382556,0.2744270635,1.0932790877,0.9561234835,0.9528449029,-0.6318271310,-0.9694916705,-0.0384166835,-1.4318547639,-1.2614899524
1.1280771270,1.1475567871,-1.2954627824,-1.2972412289,-0.6249576942,-0.8717108589,1.1676526080,0.2960204942,-1.2721619571,-0.3345071448,-1.4082625739,-1.1871916462,1.4576239163,-1.1900784718,1.4059246893,1.2027210634,-1.2458695045,0.1935901725,1.3610480877,-1.2852959156,-1.3165186380,1.4608354344,1.2880744215,-0.9704541616,-1.2526609268,1.2207835684,-0.5005980278,1.0551669489,-1.3157244959,1.2642735169,-1.4404078898,-1.4159602922
-1.2036349891,1.4234276907,1.1240110196,-1.2284176373,1.2158149583,-1.2573980433,-1.3683431447,1.1147048159,1.4791644459,0.6141752544,1.2397265095,0.4995365088,-1.4685530336,-1.3151980900,-1.2869952974,-0.4750589001,1.1661964287,-1.2487025031,-1.2952537889,1.1729172261,1.3476768297,-0.6451499192,-1.2762113738,-1.3368820506,1.0194090869,1.1002413378,1.0936996973,1.0937266359,-1.1253675854,1.0411392749,-1.3823925986,-1.2020418143
-1.2059047414,-1.3613568798,0.9695787062,-1.2375344605,0.6947466150,1.4560340806,-1.3096982913,-1.3415185812,1.1979439173,0.3168106233,0.8919401158,-1.3984420989,-1.3146454645,-1.2876274191,-1.2690730800,-1.4313857354,0.8395521342,-1.2012697056,-1.2140518349,0.8833059010,1.1324411173,1.2375986160,-1.4159740059,1.3695913499,1.0076273147,0.1197331358,0.0731792566,0.6438234343,1.4485362510,-1.5216558696,-1.3227002658,-1.2298107333
1.0781882540,0.6347786239,-1.2896223009
-0.6001043618,0.1656554509,0.3381516329
-0.6643053175,1.0816910498,-0.4901396319
1.2301700408,-1.4046789829,-1.2068425846
0.2557251247,-0.1247556134,-0.1310471829
0.0132163162,0.6176973721,-0.5637602663
0.9591521511,-0.8071618929,0.5526455456
0.3750239547,0.0887725913,-0.3051649073
0.2946200517,-0.5840017709,0.3256119831
-0.2426774710,-0.2883412195,0.5570898537
-0.2746838146,0.0060157334,-0.0705404217
-0.9129351926,0.6672699267,1.3680823904
1.1467021459,-0.8218588713,0.5486002356
0.2287517330,-1.3473521739,1.2196497800
0.3406895373,-0.8429173373,1.0380608309
-0.1040686903,0.0467045141,-0.2389151013
0.0974490681,-0.9597071680,1.2373979167
0.9209083016,-0.4018708139,-0.2692845779
1.1418485872,-1.1223724012,1.2747725691
-0.4738757598,0.0822607286,0.3010635698
0.0641704382,-0.1258966902,0.1723273729
-0.3254375651,0.1870448357,0.2387357149
1.1159097625,-1.0650075111,0.8488012916
-0.7508112700,0.9422896222,-0.4029715914
0.6990104505,-0.5919130409,-0.4688650114
-0.2306618142,0.1130584956,-0.0354635246
-0.1851183873,0.3236053006,0.3177488977
-0.1995308991,0.2988345636,-0.1792964390
1.0218228588,0.5841081635,-0.7466413404
0.0061712207,0.1283055675,-0.0316934343
1.4150953604,-1.1241168808,1.2797541350
1.3309322053,-1.1956209299,1.3200413515
